
\data\
ngram 1=489
ngram 2=2584
ngram 3=7053
ngram 4=12356
ngram 5=14763
ngram 6=13862
ngram 7=11138
ngram 8=8164

\1-grams:
-1.087004	</s>
-99	<s>	-1.390859
-3.296232	-|4}_	-0.173273
-3.129991	-|7}#	-0.271441
-3.296232	-|a}a	-0.173273
-3.016191	-|b}b	-0.301916
-3.296232	-|c}k	-0.173273
-3.296232	-|d}d	-0.173273
-3.129991	-|g}g	-0.173273
-2.869537	-|h}h	-0.232848
-2.869537	-|k}k	-0.232848
-2.435052	-|l}l	-0.344166
-3.129991	-|m}m	-0.271441
-2.760101	-|p}p	-0.236195
-2.760101	-|s}s	-0.362920
-2.760101	-|t}t	-0.236195
-3.296232	-}	-0.173273
-3.296232	-}h|q	-0.173273
-2.023314	-}q	-0.594393
-3.296232	-}s|i	-0.173273
-2.672765	0|0}_	-0.602946
-3.129991	1|0}#	-0.173273
-3.129991	1|1}#	-0.271441
-3.129991	1|2}#	-0.271441
-3.296232	1|5}#	-0.173273
-3.296232	1|8}#	-0.173273
-3.296232	1|9}#	-0.173273
-3.129991	1}#	-0.203595
-3.296232	2|0}#	-0.173273
-3.129991	2|0}_	-0.173273
-3.129991	2|2}#	-0.271441
-3.296232	2|5}#	-0.173273
-3.296232	2|6}#	-0.173273
-3.296232	2|7}#	-0.173273
-3.296232	2|8}#	-0.173273
-3.296232	2}#	-0.173273
-3.296232	3|2}#	-0.173273
-3.296232	3|3}#	-0.173273
-3.296232	3|5}#	-0.173273
-3.296232	3|6}#	-0.173273
-3.296232	3|7}#	-0.173273
-3.296232	3|9}#	-0.173273
-3.296232	3}#	-0.173273
-3.296232	4|-}#	-0.173273
-3.296232	4|1}#	-0.173273
-3.296232	4|3}#	-0.173273
-3.296232	4|4}#	-0.173273
-3.129991	4|4}_	-0.173273
-3.296232	4|5}#	-0.173273
-3.296232	4|7}#	-0.173273
-3.296232	4|8}#	-0.173273
-3.296232	4|9}#	-0.173273
-3.296232	5|0}#	-0.173273
-3.296232	5|1}#	-0.173273
-3.296232	5|3}#	-0.173273
-3.296232	5|4}#	-0.173273
-3.296232	5|5}#	-0.173273
-3.296232	5|8}#	-0.173273
-3.129991	5}#	-0.271441
-3.296232	6|1}#	-0.173273
-3.296232	6|3}#	-0.173273
-3.296232	6|4}#	-0.173273
-3.296232	6|5}#	-0.173273
-3.296232	6|7}#	-0.173273
-3.296232	6|9}#	-0.173273
-3.296232	6}#	-0.173273
-3.129991	7|0}#	-0.271441
-3.296232	7|1}#	-0.173273
-3.296232	7|4}#	-0.173273
-3.296232	7|5}#	-0.173273
-3.296232	7}#	-0.173273
-3.296232	8|3}#	-0.173273
-3.296232	8|4}#	-0.173273
-3.296232	8|5}#	-0.173273
-3.296232	8|8}_	-0.173273
-3.296232	8|9}#	-0.173273
-3.296232	8}#	-0.173273
-3.296232	9|0}_	-0.173273
-3.296232	9|1}#	-0.173273
-3.296232	9|6}#	-0.173273
-3.296232	9|7}_	-0.173273
-3.296232	9|8}#	-0.173273
-3.296232	9|9}#	-0.173273
-3.296232	9}#	-0.173273
-3.296232	a|-}a	-0.173273
-3.296232	a|-}ay	-0.173273
-3.296232	a|j}ow	-0.173273
-3.296232	a|l}_	-0.173273
-3.016191	a|o}aw	-0.301916
-3.296232	a|s}_	-0.173273
-3.296232	a|t}a	-0.173273
-2.869537	a|u}aw	-0.173273
-2.222257	a|w}aw	-0.589224
-3.296232	a|w}o	-0.173273
-2.122493	a|y}ay	-0.490950
-2.537843	a|y}ey	-0.393662
-3.296232	a}	-0.173273
-2.023314	a}_	-0.238025
-1.410172	a}a	-0.778753
-2.760101	a}ae	-0.199132
-3.296232	a}ao	-0.173273
-3.296232	a}aw	-0.173273
-3.296232	a}a|d	-0.173273
-3.129991	a}a|g	-0.173273
-3.296232	a}a|m	-0.173273
-3.296232	a}a|n	-0.173273
-2.760101	a}a|ng	-0.362920
-2.145369	a}a|q	-0.625898
-3.296232	a}a|s	-0.173273
-3.296232	a}a|y	-0.173273
-3.129991	a}b|a	-0.173273
-2.537843	a}e	-0.203595
-2.222257	a}ey	-0.298684
-3.296232	a}h|e	-0.173273
-3.296232	a}i	-0.173273
-3.296232	a}k|a	-0.173273
-3.296232	a}ng|a	-0.173273
-3.296232	a}o	-0.173273
-3.016191	a}q	-0.252981
-2.315750	a}q|a	-0.332024
-3.296232	a}q|ae	-0.173273
-3.296232	a}q|ay	-0.173273
-3.296232	a}q|e	-0.173273
-3.129991	a}q|ey	-0.173273
-3.296232	a}q|uh	-0.173273
-3.129991	a}u	-0.173273
-3.296232	a}uh	-0.173273
-3.129991	a}y|a	-0.173273
-3.129991	b}_	-0.173273
-1.862193	b}b	-0.556511
-3.016191	b}b|i	-0.236195
-3.129991	b}b|u	-0.173273
-3.296232	b}b|uh	-0.173273
-3.296232	b}p	-0.173273
-3.296232	b}p|a	-0.173273
-3.296232	b}q|b	-0.173273
-3.296232	b}q|e	-0.173273
-3.296232	c|-}k	-0.173273
-3.296232	c|e}i	-0.173273
-2.537843	c|e}s	-0.618193
-3.296232	c|e}sh	-0.173273
-2.282299	c|h}ch	-0.340519
-3.129991	c|h}sh	-0.271441
-3.296232	c|i}a	-0.173273
-2.537843	c|i}sh	-0.339090
-3.296232	c|o}k	-0.173273
-3.296232	c}b|i	-0.173273
-3.296232	c}ey|k	-0.173273
-2.060314	c}k	-0.425279
-2.391540	c}s	-0.488243
-2.672765	c}s|i	-0.242180
-3.296232	d|e}jh	-0.173273
-2.869537	d|i}jh	-0.226628
-3.296232	d|j}jh	-0.173273
-3.129991	d|y}jh	-0.173273
-1.794355	d}d	-0.533452
-3.016191	d}d|i	-0.173273
-3.296232	d}d|t	-0.173273
-3.296232	d}g	-0.173273
-3.296232	d}jh	-0.173273
-3.296232	d}n	-0.173273
-3.296232	d}n|d	-0.173273
-3.296232	d}r|d	-0.173273
-3.129991	d}t	-0.173273
-3.296232	e|-}i	-0.173273
-3.296232	e|d}ay	-0.173273
-3.296232	e|d}s	-0.173273
-3.129991	e|i}e	-0.271441
-3.296232	e|i}ey	-0.173273
-2.080067	e|r}er	-0.422176
-3.296232	e|s}t	-0.173273
-3.016191	e|t}e	-0.301916
-3.296232	e|w}iw	-0.173273
-3.016191	e|w}u	-0.301916
-3.129991	e|y}ey	-0.173273
-3.296232	e|y}uy	-0.173273
-2.060314	e}_	-0.503104
-1.700574	e}e	-0.666721
-3.016191	e}ey	-0.173273
-3.296232	e}e|k	-0.173273
-3.296232	e}e|q	-0.173273
-3.016191	e}e|y	-0.266010
-1.973127	e}i	-0.453176
-3.296232	e}i|q	-0.173273
-2.869537	e}i|y	-0.219589
-3.296232	e}q	-0.173273
-3.129991	e}q|e	-0.187005
-3.296232	e}q|i	-0.173273
-3.129991	e}u	-0.173273
-3.129991	e}uh	-0.271441
-3.296232	e}w|e	-0.173273
-3.016191	e}y	-0.173273
-3.296232	e}y|a	-0.173273
-3.296232	e}y|e	-0.173273
-3.016191	f|f}f	-0.173273
-3.296232	f|f}p	-0.173273
-3.296232	f|i}f	-0.173273
-3.296232	f}b	-0.173273
-2.251241	f}f	-0.286229
-2.869537	f}p	-0.203595
-3.129991	f}v	-0.271441
-3.296232	g|-}g	-0.173273
-2.672765	g|e}jh	-0.602946
-3.296232	g|g}g	-0.173273
-3.296232	g|h}ey	-0.173273
-3.016191	g|i}i	-0.236195
-3.296232	g|i}jh	-0.173273
-3.296232	g|m}_	-0.173273
-2.869537	g|u}g	-0.249952
-3.129991	g}_	-0.173273
-3.296232	g}ay	-0.173273
-3.016191	g}a|ng	-0.236195
-1.874606	g}g	-0.519697
-3.296232	g}g|k	-0.173273
-3.296232	g}h	-0.173273
-2.391540	g}jh	-0.506893
-3.129991	g}jh|i	-0.173273
-3.296232	g}l|g	-0.173273
-3.296232	g}ng	-0.173273
-3.296232	g}ng|a	-0.173273
-3.296232	h|i}h	-0.173273
-3.296232	h|o}h	-0.173273
-2.351994	h}_	-0.259963
-3.296232	h}b|h	-0.173273
-2.005932	h}h	-0.552311
-3.296232	h}h|o	-0.173273
-3.296232	h}p	-0.173273
-3.296232	h}w	-0.173273
-3.296232	i|c}k	-0.173273
-2.760101	i|g}ay	-0.362920
-3.296232	i|g}g	-0.173273
-3.296232	i|k}k	-0.173273
-3.296232	i|l}ey	-0.173273
-3.129991	i|l}l	-0.173273
-3.296232	i|r}er	-0.173273
-3.296232	i|s}q	-0.173273
-3.296232	i|s}v	-0.173273
-3.296232	i|t}i	-0.173273
-3.296232	i|y}h	-0.173273
-2.869537	i|y}i	-0.266010
-3.296232	i|y}ny	-0.173273
-3.296232	i|y}y	-0.173273
-3.296232	i}	-0.173273
-3.129991	i}I	-0.271441
-3.296232	i}a	-0.173273
-2.351994	i}ay	-0.285671
-2.195087	i}e	-0.369754
-3.129991	i}ey	-0.173273
-3.129991	i}e|q	-0.271441
-3.296232	i}e|y	-0.173273
-3.296232	i}f	-0.173273
-3.296232	i}h|i	-0.173273
-1.564168	i}i	-0.716924
-3.129991	i}iy	-0.173273
-3.296232	i}i|n	-0.173273
-2.222257	i}i|q	-0.692034
-3.296232	i}i|s	-0.173273
-2.600085	i}i|y	-0.449931
-3.296232	i}ly|o	-0.173273
-3.296232	i}n|i	-0.173273
-3.296232	i}o|r	-0.173273
-3.016191	i}q	-0.173273
-3.129991	i}q|ay	-0.173273
-3.296232	i}q|e	-0.173273
-2.391540	i}q|i	-0.334760
-3.296232	i}q|o	-0.173273
-3.296232	i}t	-0.173273
-3.296232	i}u	-0.173273
-3.296232	i}w|i	-0.173273
-2.600085	i}y	-0.209922
-3.129991	j}h	-0.236195
-3.296232	j}h|u	-0.173273
-3.016191	j}jh	-0.208659
-3.129991	j}jh|ey	-0.173273
-3.296232	k|a}	-0.173273
-2.869537	k}_	-0.249952
-3.296232	k}g|k	-0.173273
-1.838384	k}k	-0.528966
-3.129991	k}k|a	-0.173273
-3.296232	k}q|a	-0.173273
-3.296232	k}t|i	-0.173273
-3.296232	l|-}l	-0.173273
-3.296232	l|e}ly	-0.173273
-3.296232	l|i}_	-0.173273
-2.869537	l|i}ly	-0.226628
-2.600085	l|l}l	-0.229488
-3.129991	l|l}ly	-0.173273
-3.129991	l|o}l	-0.271441
-3.016191	l|y}ly	-0.266010
-3.296232	l}_	-0.173273
-3.296232	l}ay|l	-0.173273
-3.296232	l}a|er	-0.173273
-1.660325	l}l	-0.565897
-3.296232	l}l|e	-0.173273
-3.296232	l}n|p	-0.173273
-3.129991	l}o	-0.236195
-3.296232	l}r	-0.173273
-3.296232	m|g}	-0.173273
-3.129991	m|m}m	-0.173273
-3.296232	m|u}e	-0.173273
-1.815812	m}m	-0.544958
-3.296232	m}m|i	-0.173273
-3.296232	m}n	-0.173273
-3.296232	m}y	-0.173273
-2.672765	n|-}n	-0.224055
-3.296232	n|c}n	-0.173273
-2.760101	n|d}n	-0.523764
-2.600085	n|g}_	-0.357787
-3.296232	n|g}ang	-0.173273
-3.296232	n|g}k	-0.173273
-2.041420	n|g}ng	-0.411507
-3.296232	n|g}ny	-0.173273
-3.296232	n|g}q	-0.173273
-3.296232	n|g}s	-0.173273
-3.296232	n|i}n	-0.173273
-2.483414	n|i}ny	-0.324992
-2.600085	n|y}ny	-0.380247
-2.600085	n}_	-0.201186
-3.129991	n}d	-0.173273
-3.296232	n}m	-0.173273
-3.296232	n}m|a	-0.173273
-1.546068	n}n	-0.581644
-2.672765	n}ng	-0.311243
-2.869537	n}ny	-0.226628
-3.296232	n}n|d	-0.173273
-3.296232	n}o|n	-0.173273
-3.296232	n}q|i	-0.173273
-3.129991	n}s	-0.173273
-3.129991	o|-}o	-0.173273
-3.129991	o|2}#	-0.271441
-3.129991	o|c}aw	-0.271441
-3.016191	o|i}oy	-0.173273
-3.296232	o|n}n	-0.173273
-2.760101	o|o}u	-0.209922
-3.296232	o|o}uh	-0.173273
-3.296232	o|r}o	-0.173273
-3.296232	o|t}a	-0.173273
-2.869537	o|u}aw	-0.173273
-3.296232	o|v}o	-0.173273
-2.869537	o|w}aw	-0.245811
-3.296232	o|w}ow	-0.173273
-2.282299	o|y}oy	-0.722932
-2.760101	o|y}uy	-0.523764
-2.391540	o}a	-0.236195
-2.672765	o}ao	-0.173273
-3.296232	o}aw	-0.173273
-3.296232	o}ay|q	-0.173273
-3.296232	o}h|a	-0.173273
-3.296232	o}h|o	-0.173273
-3.296232	o}i	-0.173273
-3.129991	o}k|o	-0.271441
-1.602804	o}o	-0.750240
-2.435052	o}ow	-0.225222
-2.100762	o}o|q	-0.698370
-3.296232	o}q|aw	-0.173273
-2.869537	o}q|o	-0.196821
-3.016191	o}q|ow	-0.173273
-3.296232	o}q|oy	-0.173273
-3.016191	o}q|u	-0.206460
-3.296232	o}r|o	-0.173273
-3.296232	o}s|a	-0.173273
-1.887385	o}u	-0.722698
-2.483414	o}uh	-0.362920
-2.483414	o}u|q	-0.487064
-3.129991	o}w	-0.271441
-3.016191	o}y|u	-0.236195
-3.296232	o}|o	-0.173273
-3.296232	p|3}_	-0.173273
-3.296232	p|c}_	-0.173273
-2.672765	p|h}f	-0.195814
-3.296232	p|o}po	-0.173273
-2.869537	p}_	-0.173273
-3.296232	p}a|p	-0.173273
-3.129991	p}f	-0.173273
-1.874606	p}p	-0.509091
-3.129991	p}p|i	-0.271441
-3.296232	p}q	-0.173273
-2.672765	q|u}k	-0.226628
-3.296232	r|a}ey	-0.173273
-3.296232	r|e}_	-0.173273
-3.016191	r|e}e	-0.236195
-3.296232	r|i}ay	-0.173273
-3.296232	r|i}er	-0.173273
-3.296232	r|i}r	-0.173273
-3.296232	r|o}er	-0.173273
-3.016191	r|o}r	-0.301916
-3.016191	r|r}r	-0.249952
-3.129991	r|y}i	-0.271441
-1.973127	r}er	-0.373856
-3.296232	r}e|r	-0.173273
-1.815812	r}r	-0.527093
-3.296232	r}r|o	-0.173273
-3.296232	r}s|q	-0.173273
-3.296232	s|-}s	-0.173273
-2.672765	s|h}sh	-0.223821
-3.296232	s|i}	-0.173273
-2.672765	s|i}sh	-0.259603
-3.296232	s|p}_	-0.173273
-2.760101	s|s}s	-0.255984
-3.016191	s|t}s	-0.236195
-3.296232	s|u}s	-0.173273
-2.391540	s|y}sh	-0.457119
-3.296232	s}ch	-0.173273
-3.296232	s}er|g	-0.173273
-3.296232	s}i|s	-0.173273
-3.296232	s}m	-0.173273
-3.296232	s}q|e	-0.173273
-3.296232	s}q|i	-0.173273
-1.675980	s}s	-0.659271
-2.672765	s}sh	-0.362125
-3.129991	s}s|a	-0.173273
-3.129991	s}t	-0.173273
-3.016191	s}z	-0.173273
-3.296232	t|h}d	-0.173273
-3.129991	t|h}dh	-0.173273
-2.672765	t|h}th	-0.226628
-3.296232	t|h}y	-0.173273
-3.016191	t|i}ch	-0.249952
-2.672765	t|i}sh	-0.351477
-2.760101	t|s}ch	-0.334760
-3.129991	t|t}t	-0.236195
-3.129991	t|y}ch	-0.173273
-3.296232	t}ae|th	-0.173273
-3.129991	t}a|t	-0.173273
-2.869537	t}ch	-0.271441
-3.296232	t}n|t	-0.173273
-3.296232	t}s	-0.173273
-3.296232	t}s|t	-0.173273
-1.637853	t}t	-0.638959
-3.296232	t}t|i	-0.173273
-3.296232	t}t|o	-0.173273
-3.129991	u|d}a	-0.173273
-3.129991	u|i}u	-0.173273
-3.296232	u|i}y	-0.173273
-3.129991	u|p}p	-0.173273
-2.869537	u|r}er	-0.173273
-3.129991	u|t}t	-0.173273
-3.016191	u|t}u	-0.236195
-3.016191	u|w}w	-0.173273
-3.129991	u|y}uy	-0.271441
-2.537843	u}a	-0.267091
-3.296232	u}ng	-0.173273
-2.145369	u}o	-0.438033
-3.296232	u}ow	-0.173273
-2.760101	u}o|q	-0.362920
-3.129991	u}q|o	-0.173273
-2.869537	u}q|u	-0.223165
-1.709092	u}u	-0.747901
-2.760101	u}uh	-0.209922
-3.016191	u}u|q	-0.236195
-2.537843	u}w	-0.359754
-2.672765	u}y|u	-0.212069
-3.296232	v|e}b	-0.173273
-3.016191	v|e}v	-0.236195
-3.016191	v}b	-0.173273
-3.296232	v}f|e	-0.173273
-3.296232	v}i|v	-0.173273
-3.296232	v}o|er	-0.173273
-2.222257	v}v	-0.441229
-3.296232	v}v|a	-0.173273
-3.129991	v}v|i	-0.173273
-3.296232	w|o}aw	-0.173273
-3.129991	w|o}o	-0.236195
-3.129991	w|o}w	-0.271441
-3.296232	w|u}u	-0.173273
-3.296232	w}aw	-0.173273
-1.973127	w}w	-0.514543
-3.296232	x|t}s	-0.173273
-3.296232	x}g|z	-0.173273
-3.129991	x}h	-0.271441
-2.672765	x}k|s	-0.268324
-3.296232	x}k|sh	-0.173273
-2.869537	y|a}a	-0.214192
-3.296232	y|n}n	-0.173273
-3.016191	y|o}o	-0.173273
-3.296232	y|o}y	-0.173273
-3.296232	y|u}u	-0.173273
-3.296232	y|y}oy	-0.173273
-2.672765	y}ay	-0.232848
-3.296232	y}a|sh	-0.173273
-3.296232	y}a|y	-0.173273
-3.016191	y}e	-0.173273
-3.296232	y}e|s	-0.173273
-2.195087	y}i	-0.580045
-3.296232	y}i|y	-0.173273
-1.928143	y}y	-0.624551
-2.672765	z}s	-0.300430
-2.760101	z}z	-0.266010
-3.296232	z}z|i	-0.173273

\2-grams:
-4.036738	<s> -}	-0.155172
-3.147992	<s> -}q	-0.155172
-3.993643	<s> 1|0}#	-0.155172
-3.993643	<s> 1|1}#	-0.155172
-4.036738	<s> 1|8}#	-0.155172
-3.653465	<s> 1|9}#	-0.155172
-3.102542	<s> 1}#	-0.155172
-4.036738	<s> 2|0}#	-0.155172
-3.635114	<s> 2|0}_	-0.155172
-3.993643	<s> 2|2}#	-0.155172
-4.036738	<s> 2|5}#	-0.155172
-4.036738	<s> 2|6}#	-0.155172
-4.036738	<s> 2|7}#	-0.155172
-4.036738	<s> 2|8}#	-0.155172
-3.653465	<s> 2}#	-0.155172
-4.036738	<s> 3|2}#	-0.155172
-4.036738	<s> 3|3}#	-0.155172
-4.036738	<s> 3|5}#	-0.155172
-4.036738	<s> 3|6}#	-0.155172
-4.036738	<s> 3|7}#	-0.155172
-4.036738	<s> 3|9}#	-0.155172
-3.653465	<s> 3}#	-0.155172
-4.036738	<s> 4|-}#	-0.155172
-4.036738	<s> 4|1}#	-0.155172
-4.036738	<s> 4|3}#	-0.155172
-4.036738	<s> 4|4}#	-0.155172
-3.993643	<s> 4|4}_	-0.155172
-4.036738	<s> 4|5}#	-0.155172
-4.036738	<s> 4|7}#	-0.155172
-4.036738	<s> 4|8}#	-0.155172
-4.036738	<s> 4|9}#	-0.155172
-4.036738	<s> 5|1}#	-0.155172
-4.036738	<s> 5|3}#	-0.155172
-4.036738	<s> 5|4}#	-0.155172
-4.036738	<s> 5|5}#	-0.155172
-4.036738	<s> 5|8}#	-0.155172
-3.993643	<s> 5}#	-0.155172
-4.036738	<s> 6|1}#	-0.155172
-4.036738	<s> 6|3}#	-0.155172
-4.036738	<s> 6|4}#	-0.155172
-4.036738	<s> 6|5}#	-0.155172
-4.036738	<s> 6|7}#	-0.155172
-4.036738	<s> 6|9}#	-0.155172
-4.036738	<s> 6}#	-0.155172
-3.993643	<s> 7|0}#	-0.155172
-4.036738	<s> 7|1}#	-0.155172
-4.036738	<s> 7|4}#	-0.155172
-4.036738	<s> 7|5}#	-0.155172
-4.036738	<s> 7}#	-0.155172
-4.036738	<s> 8|3}#	-0.155172
-4.036738	<s> 8|4}#	-0.155172
-4.036738	<s> 8|5}#	-0.155172
-4.036738	<s> 8|9}#	-0.155172
-4.036738	<s> 8}#	-0.155172
-4.036738	<s> 9|1}#	-0.155172
-4.036738	<s> 9|6}#	-0.155172
-4.036738	<s> 9|8}#	-0.155172
-4.036738	<s> 9|9}#	-0.155172
-3.653465	<s> 9}#	-0.155172
-3.422522	<s> a|y}ay	-0.155172
-3.231463	<s> a}_	-0.155172
-2.012657	<s> a}a	-0.480433
-3.495692	<s> a}e	-0.155172
-3.501620	<s> a}ey	-0.155172
-4.036738	<s> a}ng|a	-0.155172
-2.838872	<s> a}q	-0.332873
-1.377412	<s> a}q|a	-0.789726
-4.036738	<s> a}q|ae	-0.155172
-3.460352	<s> a}q|e	-0.234181
-2.997178	<s> a}q|ey	-0.192882
-4.036738	<s> a}q|uh	-0.155172
-1.219722	<s> b}b	-1.044336
-3.956623	<s> b}b|i	-0.155172
-3.993643	<s> b}b|u	-0.155172
-2.735394	<s> c|h}ch	-0.216618
-3.993643	<s> c|h}sh	-0.155172
-3.723135	<s> c|i}sh	-0.155172
-1.765520	<s> c}k	-0.825539
-2.746686	<s> c}s	-0.444283
-3.540741	<s> c}s|i	-0.155172
-3.223567	<s> d|i}jh	-0.213041
-1.379427	<s> d}d	-0.984182
-3.235154	<s> d}d|i	-0.155172
-4.036738	<s> d}g	-0.155172
-3.371416	<s> e}_	-0.155172
-2.576126	<s> e}e	-0.272920
-2.788951	<s> e}i	-0.235899
-3.460352	<s> e}q	-0.155172
-2.206885	<s> e}q|e	-0.426412
-2.783198	<s> e}q|i	-0.179944
-3.618509	<s> e}y	-0.279824
-3.653465	<s> f|i}f	-0.279824
-2.395440	<s> f}f	-0.311696
-3.419297	<s> f}p	-0.234181
-3.956623	<s> g|i}i	-0.155172
-4.036738	<s> g|m}_	-0.155172
-3.223567	<s> g|u}g	-0.308123
-1.272944	<s> g}g	-1.268391
-4.036738	<s> g}h	-0.155172
-3.150107	<s> g}jh	-0.213041
-3.993643	<s> g}jh|i	-0.155172
-1.535643	<s> h}h	-0.979794
-4.036738	<s> h}p	-0.155172
-4.036738	<s> i|k}k	-0.155172
-3.249275	<s> i|s}q	-0.498929
-4.036738	<s> i}f	-0.155172
-4.036738	<s> i}h|i	-0.155172
-1.846865	<s> i}i	-0.653313
-3.956623	<s> i}q	-0.155172
-3.993643	<s> i}q|ay	-0.155172
-3.249275	<s> i}q|e	-0.279824
-1.415268	<s> i}q|i	-0.920355
-4.036738	<s> i}t	-0.155172
-3.635114	<s> j}h	-0.155172
-4.036738	<s> j}h|u	-0.155172
-2.327756	<s> j}jh	-0.337113
-3.993643	<s> j}jh|ey	-0.155172
-4.036738	<s> k|a}	-0.155172
-3.591010	<s> k}_	-0.155172
-1.093085	<s> k}k	-1.245575
-3.448499	<s> k}k|a	-0.155172
-4.036738	<s> k}q|a	-0.155172
-4.036738	<s> l|e}ly	-0.155172
-3.760848	<s> l|l}l	-0.155172
-3.993643	<s> l|o}l	-0.155172
-1.442208	<s> l}l	-0.922829
-4.036738	<s> m|g}	-0.155172
-0.885471	<s> m}m	-1.383061
-4.036738	<s> m}m|i	-0.155172
-4.036738	<s> m}n	-0.155172
-3.760848	<s> n|g}_	-0.155172
-4.036738	<s> n|g}k	-0.155172
-2.358374	<s> n|g}ng	-0.511097
-4.036738	<s> n|g}ny	-0.155172
-4.036738	<s> n|g}q	-0.155172
-4.036738	<s> n|g}s	-0.155172
-4.036738	<s> n|i}n	-0.155172
-3.337736	<s> n|i}ny	-0.234181
-3.517633	<s> n|y}ny	-0.155172
-3.760848	<s> n}_	-0.155172
-3.653465	<s> n}m	-0.155172
-1.071895	<s> n}n	-1.323648
-3.898809	<s> n}ny	-0.155172
-4.036738	<s> n}q|i	-0.155172
-3.635114	<s> n}s	-0.155172
-3.956623	<s> o|i}oy	-0.155172
-4.036738	<s> o}h|o	-0.155172
-2.543880	<s> o}o	-0.262266
-3.653465	<s> o}q|aw	-0.155172
-2.270204	<s> o}q|o	-0.299951
-4.036738	<s> o}q|oy	-0.155172
-3.437623	<s> o}q|u	-0.155172
-3.653465	<s> p|3}_	-0.155172
-4.036738	<s> p|c}_	-0.155172
-2.973569	<s> p|h}f	-0.484214
-3.089132	<s> p}_	-0.155172
-3.993643	<s> p}f	-0.155172
-0.941251	<s> p}p	-1.307234
-4.036738	<s> p}q	-0.155172
-3.540741	<s> q|u}k	-0.155172
-2.257385	<s> r}er	-0.501943
-1.912851	<s> r}r	-0.676369
-2.668192	<s> s|h}sh	-0.260795
-4.036738	<s> s|i}	-0.155172
-2.766185	<s> s|i}sh	-0.359275
-4.036738	<s> s|p}_	-0.155172
-3.435828	<s> s|y}sh	-0.155172
-4.036738	<s> s}q|i	-0.155172
-1.228591	<s> s}s	-0.997520
-3.802149	<s> s}sh	-0.155172
-3.993643	<s> s}s|a	-0.155172
-3.460352	<s> t|h}d	-0.155172
-3.993643	<s> t|h}dh	-0.155172
-3.540741	<s> t|h}th	-0.155172
-3.618509	<s> t|i}ch	-0.155172
-3.401714	<s> t|s}ch	-0.234181
-3.993643	<s> t|y}ch	-0.155172
-1.268004	<s> t}t	-1.043455
-4.036738	<s> t}t|i	-0.155172
-3.993643	<s> u|p}p	-0.155172
-4.036738	<s> u}ng	-0.155172
-3.307631	<s> u}o	-0.155172
-2.997178	<s> u}q|o	-0.192882
-1.820306	<s> u}q|u	-0.644630
-3.001759	<s> u}u	-0.279824
-3.201281	<s> u}y|u	-0.308123
-3.956623	<s> v}b	-0.155172
-4.036738	<s> v}f|e	-0.155172
-2.598419	<s> v}v	-0.314564
-3.993643	<s> v}v|i	-0.155172
-2.311748	<s> w}w	-0.552392
-3.480454	<s> y}i	-0.155172
-2.369080	<s> y}y	-0.524038
-3.540741	<s> z}s	-0.279824
-4.036738	<s> z}z|i	-0.155172
-0.415768	-|4}_ </s>
-0.293661	-|7}# </s>
-0.471149	-|a}a g}g	-0.155172
-0.283643	-|b}b a}a	-0.213041
-0.449664	-|c}k a}a	-0.155172
-0.449664	-|d}d a}a	-0.155172
-0.719897	-|g}g a}a	-0.155172
-0.738021	-|g}g i}i	-0.155172
-0.563425	-|h}h a}a	-0.213041
-1.158440	-|h}h o}o	-0.155172
-1.204719	-|h}h o}u	-0.155172
-1.251231	-|h}h y}ay	-0.155172
-0.563425	-|k}k a}a	-0.155172
-1.150026	-|k}k i}i	-0.155172
-1.204719	-|k}k o}u	-0.155172
-1.214275	-|k}k w}w	-0.155172
-0.473576	-|l}l a}a	-0.155172
-1.517918	-|l}l e|t}e	-0.155172
-1.013903	-|l}l i}i	-0.155172
-1.474978	-|l}l o}o|q	-0.155172
-1.029907	-|l}l u}u	-0.155172
-0.313754	-|m}m a}a	-0.155172
-0.750823	-|p}p a}a	-0.155172
-0.767635	-|p}p i}i	-0.155172
-1.170550	-|p}p l}l	-0.155172
-1.195836	-|p}p r}r	-0.155172
-0.290358	-|s}s i}i	-0.213041
-1.120441	-|s}s t}t	-0.155172
-1.234243	-|t}t a|w}aw	-0.155172
-0.750823	-|t}t a}a	-0.155172
-1.195836	-|t}t r}r	-0.155172
-0.779216	-|t}t u}u	-0.155172
-0.415768	-} </s>
-0.465842	-}h|q u}u	-0.155172
-1.486894	-}q </s>
-2.244907	-}q a|w}aw	-0.155172
-0.685845	-}q a}a	-0.438053
-1.816432	-}q b}b	-0.155172
-2.367228	-}q c}ey|k	-0.155172
-1.799935	-}q d}d	-0.155172
-2.034575	-}q e}e	-0.155172
-1.839450	-}q e}i	-0.155172
-1.819243	-}q g}g	-0.234181
-0.781969	-}q i}i	-0.281409
-2.104791	-}q k}k	-0.155172
-1.943052	-}q n}n	-0.155172
-0.856047	-}q o}o	-0.353307
-1.651232	-}q o}u	-0.213041
-1.205049	-}q s}s	-0.279824
-1.999023	-}q t}t	-0.155172
-1.866894	-}q u}o	-0.234181
-1.059041	-}q u}u	-0.275567
-2.367228	-}q v}i|v	-0.155172
-0.482366	-}s|i c}b|i	-0.155172
-0.112986	0|0}_ </s>
-0.658732	1|0}# </s>
-0.780096	1|0}# 0|0}_	-0.155172
-0.293661	1|1}# </s>
-0.293661	1|2}# </s>
-0.415768	1|5}# </s>
-0.480936	1|8}# 0|0}_	-0.155172
-0.658732	1|9}# </s>
-0.782949	1|9}# 9|0}_	-0.155172
-0.685856	1}# </s>
-1.250561	1}# 0|0}_	-0.155172
-1.257306	1}# 2|0}_	-0.155172
-1.257306	1}# 4|4}_	-0.155172
-1.258466	1}# 8|8}_	-0.155172
-0.415768	2|0}# </s>
-0.783614	2|0}_ </s>
-0.957969	2|0}_ 1|1}#	-0.155172
-0.957969	2|0}_ 1|2}#	-0.155172
-0.293661	2|2}# </s>
-0.415768	2|5}# </s>
-0.415768	2|6}# </s>
-0.415768	2|7}# </s>
-0.415768	2|8}# </s>
-0.658732	2}# </s>
-0.782949	2}# 9|7}_	-0.155172
-0.415768	3|2}# </s>
-0.415768	3|3}# </s>
-0.415768	3|5}# </s>
-0.415768	3|6}# </s>
-0.415768	3|7}# </s>
-0.415768	3|9}# </s>
-0.782949	3}# -|4}_	-0.155172
-0.780096	3}# 0|0}_	-0.155172
-0.478893	4|-}# h}_	-0.155172
-0.415768	4|1}# </s>
-0.415768	4|3}# </s>
-0.415768	4|4}# </s>
-0.658732	4|4}_ </s>
-0.782532	4|4}_ 5}#	-0.155172
-0.415768	4|5}# </s>
-0.415768	4|7}# </s>
-0.415768	4|8}# </s>
-0.415768	4|9}# </s>
-0.480936	5|0}# 0|0}_	-0.155172
-0.415768	5|1}# </s>
-0.415768	5|3}# </s>
-0.415768	5|4}# </s>
-0.415768	5|5}# </s>
-0.415768	5|8}# </s>
-0.293661	5}# </s>
-0.415768	6|1}# </s>
-0.415768	6|3}# </s>
-0.415768	6|4}# </s>
-0.415768	6|5}# </s>
-0.415768	6|7}# </s>
-0.415768	6|9}# </s>
-0.415768	6}# </s>
-0.293661	7|0}# </s>
-0.415768	7|1}# </s>
-0.415768	7|4}# </s>
-0.415768	7|5}# </s>
-0.415768	7}# </s>
-0.415768	8|3}# </s>
-0.415768	8|4}# </s>
-0.415768	8|5}# </s>
-0.415768	8|8}_ </s>
-0.415768	8|9}# </s>
-0.415768	8}# </s>
-0.415768	9|0}_ </s>
-0.415768	9|1}# </s>
-0.415768	9|6}# </s>
-0.415768	9|7}_ </s>
-0.415768	9|8}# </s>
-0.415768	9|9}# </s>
-0.658732	9}# </s>
-0.780096	9}# 0|0}_	-0.155172
-0.458325	a|-}a n}n	-0.155172
-0.758873	a|-}ay k}k	-0.155172
-0.736174	a|-}ay n}n	-0.155172
-0.482366	a|j}ow o}h|a	-0.155172
-0.449664	a|l}_ a}a	-0.155172
-0.266114	a|o}aw </s>
-0.482157	a|s}_ -|7}#	-0.155172
-0.478214	a|t}a c|h}ch	-0.155172
-1.080115	a|u}aw d|i}jh	-0.155172
-1.039984	a|u}aw g}g	-0.155172
-1.013599	a|u}aw l}l	-0.155172
-1.010122	a|u}aw t}t	-0.155172
-0.185990	a|w}aw </s>
-1.816739	a|w}aw -|l}l	-0.155172
-1.368016	a|w}aw -}q	-0.279824
-1.751023	a|w}aw g}g	-0.155172
-1.800037	a|w}aw i}i|q	-0.155172
-1.825338	a|w}aw n|g}_	-0.155172
-1.828242	a|w}aw y}ay	-0.155172
-0.415768	a|w}o </s>
-0.310688	a|y}ay </s>
-2.056218	a|y}ay -|p}p	-0.155172
-1.947501	a|y}ay -}q	-0.155172
-1.972237	a|y}ay a|y}ay	-0.155172
-1.897585	a|y}ay b}b	-0.155172
-1.872597	a|y}ay d}d	-0.155172
-1.957227	a|y}ay e}_	-0.155172
-1.942719	a|y}ay h}h	-0.155172
-1.157172	a|y}ay l}l	-0.234181
-1.880768	a|y}ay m}m	-0.155172
-1.489182	a|y}ay n}n	-0.155172
-1.880768	a|y}ay r}r	-0.155172
-1.522211	a|y}ay s}s	-0.155172
-1.513273	a|y}ay t}t	-0.279824
-1.933309	a|y}ay w}w	-0.155172
-0.340679	a|y}ey </s>
-1.542623	a|y}ey e|r}er	-0.155172
-1.590129	a|y}ey r|o}r	-0.155172
-1.096812	a|y}ey s}s	-0.155172
-1.557071	a|y}ey v}v	-0.155172
-1.528641	a|y}ey w}w	-0.155172
-0.415768	a} </s>
-1.093055	a}_ </s>
-2.111288	a}_ -|7}#	-0.155172
-1.932895	a}_ a|y}ay	-0.155172
-1.525911	a}_ a}a	-0.155172
-1.985956	a}_ c|h}ch	-0.155172
-1.369747	a}_ d}d	-0.155172
-1.725159	a}_ e}e	-0.155172
-1.885617	a}_ h}h	-0.155172
-1.444041	a}_ i}ay	-0.155172
-1.430742	a}_ i}e	-0.155172
-2.111288	a}_ i}ey	-0.155172
-1.636763	a}_ i}i	-0.155172
-1.804165	a}_ k}k	-0.155172
-2.119004	a}_ l|i}_	-0.155172
-1.700098	a}_ l}l	-0.155172
-1.676047	a}_ l}o	-0.279824
-2.057362	a}_ n|g}_	-0.155172
-2.119004	a}_ n|g}ang	-0.155172
-1.302409	a}_ n}n	-0.155172
-2.015134	a}_ o}a	-0.155172
-1.454912	a}_ o}o	-0.279824
-1.402844	a}_ r}er	-0.155172
-1.483528	a}_ s}s	-0.155172
-2.119004	a}_ t}ae|th	-0.155172
-1.468985	a}_ t}t	-0.155172
-1.941301	a}_ u}o	-0.155172
-2.119004	a}_ w|o}aw	-0.155172
-1.870936	a}_ w}w	-0.155172
-2.104143	a}_ y}e	-0.155172
-1.063087	a}a </s>
-2.799710	a}a -|b}b	-0.279824
-3.202059	a}a -|g}g	-0.155172
-2.782421	a}a -|h}h	-0.155172
-2.782421	a}a -|k}k	-0.155172
-3.202059	a}a -|m}m	-0.155172
-3.100313	a}a -|p}p	-0.155172
-3.100313	a}a -|s}s	-0.155172
-2.765794	a}a -|t}t	-0.155172
-3.230082	a}a -}h|q	-0.155172
-1.937366	a}a -}q	-0.293525
-2.681528	a}a a}_	-0.155172
-1.745203	a}a a}a	-0.356098
-2.608069	a}a a}q	-0.308123
-1.583095	a}a a}q|a	-0.486253
-1.471954	a}a b}b	-0.547850
-3.230082	a}a b}b|uh	-0.155172
-3.230082	a}a b}p	-0.155172
-3.230082	a}a b}p|a	-0.155172
-3.230082	a}a c|-}k	-0.155172
-3.005689	a}a c|e}s	-0.155172
-2.862188	a}a c|h}ch	-0.155172
-2.554755	a}a c|i}sh	-0.213041
-1.795235	a}a c}k	-0.356000
-2.677526	a}a c}s	-0.155172
-2.782421	a}a d|i}jh	-0.155172
-3.230082	a}a d|j}jh	-0.155172
-1.429618	a}a d}d	-0.575037
-2.417819	a}a e}e	-0.155172
-2.842284	a}a f}f	-0.155172
-2.621703	a}a g|-}g	-0.155172
-3.230082	a}a g|g}g	-0.155172
-3.137066	a}a g|u}g	-0.155172
-1.400086	a}a g}g	-0.604843
-3.230082	a}a g}g|k	-0.155172
-2.928038	a}a g}jh	-0.155172
-3.230082	a}a g}l|g	-0.155172
-3.230082	a}a h|i}h	-0.155172
-3.230082	a}a h|o}h	-0.155172
-2.339222	a}a h}_	-0.213041
-3.230082	a}a h}b|h	-0.155172
-1.594833	a}a h}h	-0.549353
-1.886708	a}a i}i	-0.375703
-3.034998	a}a i}i|y	-0.155172
-3.177220	a}a i}q	-0.155172
-1.702194	a}a i}q|i	-0.466801
-3.202059	a}a j}h	-0.155172
-3.137066	a}a k}_	-0.155172
-2.821095	a}a k}g|k	-0.279824
-1.490430	a}a k}k	-0.504266
-3.137066	a}a l|i}ly	-0.155172
-3.034998	a}a l|l}l	-0.155172
-3.177220	a}a l|y}ly	-0.155172
-3.230082	a}a l}_	-0.155172
-1.271729	a}a l}l	-0.644431
-1.431125	a}a m}m	-0.650584
-2.749780	a}a n|-}n	-0.155172
-3.230082	a}a n|c}n	-0.155172
-2.585952	a}a n|d}n	-0.373990
-2.734335	a}a n|g}_	-0.234181
-1.407886	a}a n|g}ng	-0.563538
-2.544834	a}a n|i}ny	-0.155172
-2.052652	a}a n|y}ny	-0.477040
-2.370893	a}a n}_	-0.308123
-3.202059	a}a n}d	-0.155172
-1.216670	a}a n}n	-0.685913
-1.873055	a}a n}ng	-0.314460
-2.391068	a}a n}ny	-0.308123
-2.253414	a}a o}o	-0.155172
-2.561405	a}a o}o|q	-0.279824
-3.202059	a}a o}w	-0.155172
-1.514273	a}a p}p	-0.537567
-3.066429	a}a q|u}k	-0.155172
-3.177220	a}a r|o}r	-0.155172
-2.799710	a}a r|r}r	-0.155172
-1.567319	a}a r}er	-0.349180
-1.413512	a}a r}r	-0.492148
-2.749780	a}a s|h}sh	-0.155172
-2.765794	a}a s|s}s	-0.279824
-1.862737	a}a s|y}sh	-0.603984
-1.325819	a}a s}s	-0.662944
-2.749780	a}a s}sh	-0.155172
-3.177220	a}a s}z	-0.155172
-3.066429	a}a t|h}th	-0.155172
-2.575302	a}a t|i}sh	-0.192882
-3.100313	a}a t|s}ch	-0.155172
-3.202059	a}a t|t}t	-0.155172
-3.137066	a}a t}ch	-0.155172
-2.621703	a}a t}s	-0.234181
-1.452494	a}a t}t	-0.578203
-2.329973	a}a u}u	-0.155172
-2.719421	a}a u}w	-0.155172
-2.315449	a}a v}v	-0.155172
-2.614629	a}a w|o}o	-0.308123
-3.202059	a}a w|o}w	-0.155172
-3.230082	a}a w|u}u	-0.155172
-1.592638	a}a w}w	-0.564421
-3.230082	a}a y|n}n	-0.155172
-3.177220	a}a y}e	-0.155172
-2.805020	a}a y}i	-0.155172
-1.517945	a}a y}y	-0.564486
-2.575302	a}a z}s	-0.155172
-2.765794	a}a z}z	-0.155172
-1.215953	a}ae l}l	-0.155172
-0.846347	a}ae m}m	-0.155172
-1.187224	a}ae n}n	-0.155172
-1.219461	a}ae s}s	-0.155172
-1.315675	a}ae t|i}sh	-0.155172
-1.315675	a}ae x}k|s	-0.155172
-0.462885	a}ao t}t	-0.155172
-0.415768	a}aw </s>
-0.479232	a}a|d i}q|i	-0.155172
-0.658732	a}a|g </s>
-0.760819	a}a|g p}p	-0.155172
-0.415768	a}a|m </s>
-0.482366	a}a|n s}i|s	-0.155172
-0.270755	a}a|ng </s>
-1.180339	a}a|ng n}m|a	-0.155172
-0.478962	a}a|q </s>
-2.039764	a}a|q b}b	-0.155172
-2.076113	a}a|q e}i	-0.155172
-2.085697	a}a|q h}h	-0.155172
-1.742123	a}a|q i}e	-0.155172
-2.148114	a}a|q o|y}oy	-0.155172
-0.755467	a}a|q o}o	-0.478405
-2.171086	a}a|q o}ow	-0.155172
-1.320895	a}a|q o}u	-0.274881
-1.085630	a}a|q u}o	-0.213041
-0.987615	a}a|q u}u	-0.274881
-2.218222	a}a|q w|o}o	-0.155172
-2.076113	a}a|q w}w	-0.155172
-0.415768	a}a|s </s>
-0.482366	a}a|y l}a|er	-0.155172
-0.766710	a}b|a h}h	-0.155172
-0.746745	a}b|a l}l	-0.155172
-1.426393	a}e d}d	-0.155172
-1.541431	a}e g|e}jh	-0.155172
-1.523512	a}e g}jh	-0.155172
-1.545105	a}e n|d}n	-0.155172
-1.021114	a}e n}n	-0.155172
-1.075127	a}e r}er	-0.155172
-1.432044	a}e r}r	-0.155172
-1.391350	a}e s}s	-0.155172
-1.378591	a}e t}t	-0.155172
-1.458426	a}e y}y	-0.155172
-1.881474	a}ey b}b|i	-0.155172
-1.885181	a}ey b}b|u	-0.155172
-1.429377	a}ey c|e}s	-0.279824
-1.768816	a}ey c}k	-0.155172
-1.358313	a}ey d}d	-0.155172
-1.862597	a}ey g|e}jh	-0.155172
-1.700122	a}ey k}k	-0.155172
-1.691732	a}ey m}m	-0.155172
-1.844507	a}ey n|i}ny	-0.155172
-0.956369	a}ey n}n	-0.279824
-1.333945	a}ey s}s	-0.279824
-0.867097	a}ey t|i}sh	-0.419747
-1.158745	a}ey t}t	-0.373990
-1.805014	a}ey v}v	-0.155172
-0.482366	a}h|e b}q|b	-0.155172
-0.464525	a}i s}s	-0.155172
-0.415768	a}k|a </s>
-0.480594	a}ng|a n|g}_	-0.155172
-0.462885	a}o t}t	-0.155172
-1.296167	a}q i}e	-0.155172
-1.324102	a}q l}o	-0.155172
-0.875928	a}q w}aw	-0.279824
-0.665730	a}q y}ay	-0.373990
-1.295293	a}q|a </s>
-2.052658	a}q|a -}q	-0.155172
-1.513343	a}q|a a}a	-0.234181
-1.829416	a}q|a a}q|a	-0.155172
-1.395566	a}q|a b}b	-0.204286
-2.070694	a}q|a c}k	-0.155172
-1.261110	a}q|a d}d	-0.225601
-2.329641	a}q|a d}n|d	-0.155172
-2.151416	a}q|a f}f	-0.155172
-2.294603	a}q|a g|u}g	-0.155172
-1.397516	a}q|a g}g	-0.213041
-1.765655	a}q|a h}h	-0.155172
-1.567575	a}q|a k}k	-0.183143
-2.250646	a}q|a l|l}l	-0.155172
-1.356520	a}q|a l}l	-0.247699
-1.561831	a}q|a m}m	-0.196478
-2.279451	a}q|a n|d}n	-0.155172
-2.250646	a}q|a n|g}_	-0.155172
-1.419563	a}q|a n|g}ng	-0.317889
-2.223633	a}q|a n|i}ny	-0.155172
-2.250646	a}q|a n}_	-0.155172
-0.995164	a}q|a n}n	-0.316351
-2.294603	a}q|a p}_	-0.155172
-1.576336	a}q|a p}p	-0.187290
-2.264810	a}q|a q|u}k	-0.155172
-2.026935	a}q|a r}er	-0.155172
-1.706073	a}q|a r}r	-0.187290
-2.264810	a}q|a s|h}sh	-0.155172
-2.279451	a}q|a s|s}s	-0.155172
-1.650176	a}q|a s}s	-0.179944
-1.508221	a}q|a t}t	-0.172170
-1.597492	a}q|a w}w	-0.213041
-1.588299	a}q|a y}y	-0.264070
-0.458325	a}q|ae n}n	-0.155172
-0.474499	a}q|ay -}q	-0.155172
-0.780776	a}q|e n|d}n	-0.155172
-0.736174	a}q|e n}n	-0.155172
-0.959591	a}q|ey </s>
-1.239909	a}q|ey g}jh	-0.155172
-1.131263	a}q|ey n}n	-0.155172
-1.195259	a}q|ey p}p	-0.155172
-1.249818	a}q|ey s|i}sh	-0.155172
-1.153167	a}q|ey t}t	-0.155172
-0.481277	a}q|uh n|d}n	-0.155172
-0.746745	a}u l}l	-0.155172
-0.744861	a}u t}t	-0.155172
-0.470815	a}uh b}b	-0.155172
-0.756291	a}y|a d}d	-0.155172
-0.736174	a}y|a n}n	-0.155172
-0.719897	b}_ a}a	-0.155172
-0.782949	b}_ r|e}_	-0.155172
-1.233178	b}b </s>
-2.352716	b}b -}q	-0.155172
-2.710407	b}b a|t}a	-0.155172
-2.661029	b}b a|u}aw	-0.155172
-2.003364	b}b a|w}aw	-0.373990
-1.422219	b}b a|y}ay	-0.362145
-2.582964	b}b a|y}ey	-0.155172
-2.352716	b}b a}_	-0.155172
-0.889592	b}b a}a	-0.570667
-1.803004	b}b a}a|q	-0.272920
-2.459426	b}b a}ey	-0.155172
-2.710407	b}b a}i	-0.155172
-2.696053	b}b b}_	-0.155172
-2.696053	b}b e|i}e	-0.155172
-1.976026	b}b e|r}er	-0.213041
-2.123577	b}b e}_	-0.155172
-1.446493	b}b e}e	-0.227566
-1.777109	b}b e}i	-0.183143
-2.682953	b}b e}y	-0.155172
-2.516817	b}b h}_	-0.155172
-2.342329	b}b h}h	-0.155172
-2.280049	b}b i|y}y	-0.155172
-2.446189	b}b i}e	-0.155172
-1.150105	b}b i}i	-0.400509
-2.459426	b}b i}i|q	-0.155172
-2.233899	b}b k}k	-0.155172
-1.325183	b}b l}l	-0.218954
-2.682953	b}b o|i}oy	-0.155172
-2.640158	b}b o|o}u	-0.155172
-2.640158	b}b o|y}uy	-0.155172
-1.090862	b}b o}o	-0.454324
-2.136162	b}b o}o|q	-0.279824
-1.298273	b}b o}u	-0.325472
-2.037597	b}b o}u|q	-0.373990
-2.696053	b}b o}w	-0.155172
-2.682953	b}b r|e}e	-0.155172
-2.322272	b}b r}er	-0.155172
-1.342288	b}b r}r	-0.375365
-2.115635	b}b s}s	-0.155172
-1.695832	b}b t}t	-0.221975
-2.696053	b}b u|d}a	-0.155172
-2.661029	b}b u|r}er	-0.155172
-2.682953	b}b u|t}u	-0.155172
-2.696053	b}b u|y}uy	-0.155172
-2.582964	b}b u}a	-0.155172
-2.149123	b}b u}o	-0.155172
-2.640158	b}b u}o|q	-0.155172
-1.070009	b}b u}u	-0.427925
-2.682953	b}b u}u|q	-0.155172
-2.620245	b}b u}y|u	-0.155172
-2.322272	b}b w}w	-0.155172
-1.768809	b}b y}y	-0.200833
-0.508271	b}b|i p}p|i	-0.279824
-0.958774	b}b|i s}q|e	-0.155172
-0.746745	b}b|u l}l	-0.155172
-0.782949	b}b|u l}l|e	-0.155172
-0.463868	b}b|uh l}l	-0.155172
-0.449664	b}p a}a	-0.155172
-0.482157	b}p|a a}b|a	-0.155172
-0.449664	b}q|b a}a	-0.155172
-0.458325	b}q|e n}n	-0.155172
-0.415768	c|-}k </s>
-0.458325	c|e}i n}n	-0.155172
-0.129434	c|e}s </s>
-1.434939	c|e}s d}t	-0.155172
-0.482157	c|e}sh a}y|a	-0.155172
-0.962812	c|h}ch </s>
-0.634164	c|h}ch a}a	-0.274881
-1.735111	c|h}ch a}ey	-0.155172
-0.891806	c|h}ch e}e	-0.213041
-1.752118	c|h}ch i}ay	-0.155172
-1.550978	c|h}ch i}i	-0.155172
-1.788270	c|h}ch o|w}aw	-0.155172
-1.743531	c|h}ch o|y}oy	-0.155172
-1.778946	c|h}ch o}ao	-0.155172
-1.254490	c|h}ch o}o	-0.155172
-0.322929	c|h}sh e}e	-0.155172
-0.482366	c|i}a e}y|a	-0.155172
-0.434012	c|i}sh a}a	-0.413023
-0.981378	c|i}sh o}o	-0.155172
-1.410768	c|i}sh o}u	-0.155172
-1.477027	c|i}sh o}y|u	-0.155172
-1.378313	c|i}sh u}u	-0.155172
-0.463868	c|o}k l}l	-0.155172
-0.482366	c}b|i b}q|e	-0.155172
-0.477536	c}ey|k a}ey	-0.155172
-1.068155	c}k </s>
-2.098357	c}k a|y}ay	-0.155172
-2.060472	c}k a}_	-0.155172
-0.747835	c}k a}a	-0.302354
-1.818845	c}k a}ae	-0.155172
-2.205572	c}k a}e	-0.155172
-1.589447	c}k a}ey	-0.234181
-2.176187	c}k c}s	-0.155172
-1.389550	c}k h}_	-0.155172
-1.619925	c}k k}_	-0.373990
-1.643317	c}k l}l	-0.155172
-1.800724	c}k n}n	-0.155172
-1.794578	c}k o}a	-0.155172
-2.226328	c}k o}ao	-0.155172
-0.846996	c}k o}o	-0.345473
-1.547400	c}k o}u	-0.213041
-1.802517	c}k o}uh	-0.279824
-2.039233	c}k r}er	-0.155172
-1.963352	c}k r}r	-0.155172
-2.226328	c}k t|i}sh	-0.155172
-1.320960	c}k t}t	-0.200833
-1.903807	c}k u}u	-0.155172
-1.814705	c}k u}y|u	-0.213041
-1.381467	c}s </s>
-1.753101	c}s e|r}er	-0.155172
-0.459018	c}s e}e	-0.275496
-1.340025	c}s e}i	-0.155172
-0.670506	c}s i}i	-0.196478
-1.365868	c}s i}i|y	-0.279824
-1.768847	c}s y}i	-0.155172
-0.629407	c}s|i </s>
-0.930320	c}s|i c}s|i	-0.155172
-1.381444	c}s|i i}q|ay	-0.155172
-1.380117	c}s|i o}q|ow	-0.155172
-1.274106	c}s|i s}s	-0.155172
-0.461251	d|e}jh o}o	-0.155172
-0.807257	d|i}jh a}a	-0.279824
-0.830927	d|i}jh o}o	-0.155172
-1.232145	d|i}jh u}u	-0.155172
-1.320569	d|i}jh y|a}a	-0.155172
-1.322660	d|i}jh y|o}o	-0.155172
-0.477536	d|j}jh a|w}aw	-0.155172
-0.719897	d|y}jh a}a	-0.155172
-0.741739	d|y}jh o}o	-0.155172
-0.951323	d}d </s>
-2.512987	d}d -|l}l	-0.155172
-2.601612	d}d -|p}p	-0.155172
-2.601612	d}d -|t}t	-0.155172
-1.746060	d}d -}q	-0.250943
-2.426090	d}d a|w}aw	-0.155172
-2.669198	d}d a|w}o	-0.155172
-2.376525	d}d a|y}ay	-0.155172
-2.546299	d}d a|y}ey	-0.155172
-2.321599	d}d a}_	-0.155172
-0.930091	d}d a}a	-0.493680
-1.632167	d}d a}a|q	-0.298483
-2.426090	d}d a}ey	-0.155172
-2.220758	d}d b}b	-0.155172
-2.342743	d}d c}k	-0.155172
-2.353714	d}d e|r}er	-0.155172
-2.087167	d}d e}_	-0.279824
-1.197716	d}d e}e	-0.333104
-1.517041	d}d e}i	-0.200833
-2.655422	d}d e}u	-0.155172
-2.229017	d}d g}g	-0.155172
-2.069488	d}d h}h	-0.155172
-2.655422	d}d i}I	-0.155172
-2.482049	d}d i}ay	-0.155172
-2.124842	d}d i}e	-0.155172
-2.655422	d}d i}ey	-0.155172
-2.655422	d}d i}e|q	-0.155172
-1.271971	d}d i}i	-0.258942
-2.131452	d}d i}i|q	-0.279824
-2.195956	d}d i}i|y	-0.279824
-2.204697	d}d k}k	-0.155172
-1.666136	d}d l}l	-0.251866
-2.189209	d}d m}m	-0.155172
-1.986289	d}d n}n	-0.155172
-1.113382	d}d o}o	-0.378278
-2.512987	d}d o}ow	-0.155172
-1.757170	d}d o}o|q	-0.498929
-1.601622	d}d o}u	-0.196478
-2.229017	d}d p}p	-0.155172
-2.291695	d}d r}er	-0.155172
-1.498042	d}d r}r	-0.321732
-1.927849	d}d s}s	-0.279824
-2.642834	d}d s}z	-0.155172
-1.553289	d}d t}t	-0.550081
-2.111917	d}d u}o	-0.200833
-1.088859	d}d u}u	-0.416257
-2.426090	d}d v}v	-0.155172
-2.291695	d}d w}w	-0.155172
-2.413158	d}d y}i	-0.155172
-2.041533	d}d y}y	-0.279824
-1.257042	d}d|i a}q|ey	-0.155172
-1.255874	d}d|i b}b|i	-0.155172
-1.249818	d}d|i c}s|i	-0.155172
-1.257042	d}d|i g}jh|i	-0.155172
-1.239909	d}d|i i}q|i	-0.155172
-1.255874	d}d|i o}q|ow	-0.155172
-0.449664	d}d|t a}a	-0.155172
-0.459298	d}g i}i	-0.155172
-0.465842	d}jh u}u	-0.155172
-0.415768	d}n </s>
-0.469483	d}n|d r}r	-0.155172
-0.415768	d}r|d </s>
-0.658732	d}t </s>
-0.773352	d}t i}i|q	-0.155172
-0.756291	e|-}i d}d	-0.155172
-0.748006	e|-}i s}s	-0.155172
-0.415768	e|d}ay </s>
-0.415768	e|d}s </s>
-0.318786	e|i}e n}n	-0.155172
-0.463868	e|i}ey l}l	-0.155172
-0.580468	e|r}er </s>
-1.643294	e|r}er a}a	-0.155172
-1.878776	e|r}er b}b	-0.155172
-2.039974	e|r}er c|i}sh	-0.155172
-1.585645	e|r}er c}k	-0.155172
-2.019549	e|r}er c}s	-0.155172
-2.076307	e|r}er e|t}e	-0.155172
-1.807932	e|r}er e}e	-0.155172
-1.993730	e|r}er f}f	-0.155172
-1.736514	e|r}er i}i	-0.155172
-1.869263	e|r}er k}k	-0.155172
-1.859953	e|r}er m}m	-0.155172
-1.143823	e|r}er n}n	-0.274881
-0.847107	e|r}er s}s	-0.245150
-1.156399	e|r}er t}t	-0.272920
-1.987508	e|r}er v}v	-0.155172
-1.600593	e|r}er y}i	-0.279824
-0.415768	e|s}t </s>
-0.290301	e|t}e t}t	-0.234181
-0.415768	e|w}iw </s>
-0.266114	e|w}u </s>
-0.658732	e|y}ey </s>
-0.768692	e|y}ey c}k	-0.155172
-0.415768	e|y}uy </s>
-0.378172	e}_ </s>
-1.966222	e}_ a}_	-0.155172
-1.698029	e}_ a}a	-0.155172
-2.012546	e}_ a}ey	-0.155172
-2.023547	e}_ c|h}ch	-0.155172
-1.621758	e}_ f}f	-0.279824
-2.097350	e}_ i|l}ey	-0.155172
-2.034835	e}_ i}ay	-0.155172
-1.785205	e}_ i}i	-0.155172
-2.089608	e}_ i}q	-0.155172
-1.775656	e}_ n}n	-0.155172
-2.097350	e}_ r}r|o	-0.155172
-2.070572	e}_ s|i}sh	-0.155172
-0.791947	e}_ s}s	-0.477040
-1.951817	e}_ w}w	-0.155172
-1.617363	e}_ y}i	-0.279824
-1.100789	e}e </s>
-2.746383	e}e -|k}k	-0.155172
-2.726648	e}e -|s}s	-0.155172
-2.450527	e}e -}q	-0.155172
-2.201636	e}e a}_	-0.155172
-2.594578	e}e a}q|a	-0.155172
-1.551499	e}e b}b	-0.187290
-2.580572	e}e c|h}ch	-0.155172
-2.672312	e}e c|i}sh	-0.155172
-1.568589	e}e c}k	-0.272920
-1.543833	e}e d}d	-0.206217
-2.792862	e}e d}jh	-0.155172
-2.356156	e}e e}q|e	-0.155172
-2.767059	e}e f|f}f	-0.155172
-2.567003	e}e f}f	-0.155172
-1.552790	e}e g}g	-0.251362
-2.624024	e}e g}jh	-0.155172
-2.440429	e}e h}h	-0.155172
-2.792862	e}e h}h|o	-0.155172
-1.718489	e}e k}k	-0.220943
-2.746383	e}e l|i}ly	-0.155172
-1.590589	e}e l|l}l	-0.259672
-2.779383	e}e l|l}ly	-0.155172
-1.049644	e}e l}l	-0.621352
-1.481665	e}e m}m	-0.234181
-2.460866	e}e n|g}ng	-0.155172
-2.655612	e}e n|i}ny	-0.155172
-2.320094	e}e n}_	-0.155172
-0.911585	e}e n}n	-0.477346
-2.707770	e}e p|h}f	-0.155172
-1.487188	e}e p}p	-0.250943
-2.767059	e}e r|r}r	-0.155172
-1.298857	e}e r}er	-0.263883
-2.792862	e}e r}e|r	-0.155172
-1.013617	e}e r}r	-0.403950
-2.792862	e}e s|-}s	-0.155172
-2.335496	e}e s|s}s	-0.155172
-2.767059	e}e s|t}s	-0.155172
-1.179140	e}e s}s	-0.498314
-2.779383	e}e s}t	-0.155172
-1.276392	e}e t}t	-0.265189
-2.553845	e}e v}v	-0.155172
-2.135436	e}e x}k|s	-0.234181
-2.792862	e}e x}k|sh	-0.155172
-2.393187	e}e y}y	-0.155172
-2.135436	e}e z}s	-0.234181
-2.726648	e}e z}z	-0.155172
-0.924891	e}ey b}b	-0.155172
-0.934482	e}ey h}h	-0.155172
-0.953312	e}ey n}_	-0.155172
-0.482366	e}e|k x|t}s	-0.155172
-0.415768	e}e|q </s>
-0.985792	e}e|y a}a	-0.155172
-0.409726	e}e|y o}o	-0.234181
-0.763267	e}i </s>
-1.878557	e}i -}q	-0.155172
-1.523365	e}i a}_	-0.155172
-2.078962	e}i b}b	-0.155172
-1.719979	e}i c}k	-0.234181
-1.808445	e}i d}d	-0.155172
-1.719979	e}i e}_	-0.155172
-2.261616	e}i f}f	-0.155172
-2.400600	e}i f}p	-0.155172
-1.997129	e}i g|i}jh	-0.155172
-1.504046	e}i g}g	-0.200833
-2.307175	e}i g}jh	-0.155172
-1.389968	e}i h}h	-0.332873
-1.823953	e}i k}k	-0.155172
-2.358079	e}i l|l}l	-0.155172
-1.464346	e}i l}l	-0.200833
-1.816130	e}i m}m	-0.279824
-1.883056	e}i n|g}ng	-0.279824
-2.331881	e}i n|i}ny	-0.155172
-1.101281	e}i n}n	-0.245283
-2.371795	e}i p|h}f	-0.155172
-1.377083	e}i p}p	-0.192882
-1.494699	e}i r}r	-0.213041
-1.059248	e}i s}s	-0.289151
-2.371795	e}i s}sh	-0.155172
-2.415752	e}i s}z	-0.155172
-2.385959	e}i t|s}ch	-0.155172
-1.343177	e}i t}t	-0.200833
-2.250936	e}i v}v	-0.155172
-2.371795	e}i x}k|s	-0.155172
-2.115999	e}i y}y	-0.155172
-0.415768	e}i|q </s>
-0.975911	e}i|y a}a	-0.155172
-0.606554	e}i|y o}o	-0.279824
-1.045444	e}i|y o}u	-0.155172
-0.935453	e}q a}_	-0.155172
-0.952300	e}q a}e	-0.155172
-0.954326	e}q y}ay	-0.155172
-1.465515	e}q|e b}b	-0.155172
-1.468719	e}q|e g}g	-0.155172
-1.459179	e}q|e k}k	-0.155172
-1.403187	e}q|e l}l	-0.155172
-1.452933	e}q|e m}m	-0.155172
-1.505609	e}q|e n|g}ng	-0.155172
-1.358558	e}q|e n}n	-0.155172
-1.095950	e}q|e p}p	-0.279824
-1.408752	e}q|e s}s	-0.155172
-1.534554	e}q|e v}v	-0.155172
-1.591153	e}q|e x}g|z	-0.155172
-1.573680	e}q|e x}k|s	-0.155172
-1.017533	e}q|i </s>
-1.379129	e}q|i d}d|i	-0.155172
-1.253419	e}q|i l}l	-0.155172
-1.289217	e}q|i m}m	-0.155172
-1.220348	e}q|i n}n	-0.155172
-1.300333	e}q|i p}p	-0.155172
-1.371104	e}q|i q|u}k	-0.155172
-1.257481	e}q|i s}s	-0.155172
-0.658732	e}u </s>
-0.765394	e}u w}w	-0.155172
-0.293661	e}uh </s>
-0.463868	e}w|e l}l	-0.155172
-0.943300	e}y i}e	-0.155172
-0.926792	e}y o}u	-0.155172
-0.910889	e}y u}u	-0.155172
-0.458325	e}y|a n}n	-0.155172
-0.458325	e}y|e n}n	-0.155172
-0.862749	f|f}f </s>
-1.056364	f|f}f e|r}er	-0.155172
-0.997606	f|f}f i}i	-0.155172
-1.048727	f|f}f r}er	-0.155172
-0.459298	f|f}p i}i	-0.155172
-0.473491	f|i}f r}er	-0.155172
-0.415768	f}b </s>
-1.041784	f}f </s>
-1.163649	f}f a}a	-0.155172
-1.464883	f}f e|r}er	-0.155172
-1.820586	f}f e}_	-0.155172
-1.394779	f}f e}e	-0.155172
-1.792736	f}f e}i	-0.155172
-1.888975	f}f i}ay	-0.155172
-1.022934	f}f i}i	-0.200833
-1.659115	f}f l}l	-0.155172
-1.946488	f}f o|u}aw	-0.155172
-1.367594	f}f o}o	-0.279824
-1.064255	f}f r}er	-0.200833
-1.421478	f}f r}r	-0.155172
-1.377849	f}f t}t	-0.279824
-1.938868	f}f u}uh	-0.155172
-1.931380	f}f y}ay	-0.155172
-0.746539	f}p a}a	-0.155172
-1.219839	f}p e}_	-0.155172
-1.143257	f}p i}i	-0.155172
-1.164234	f}p l}l	-0.155172
-1.211201	f}p r}er	-0.155172
-0.293661	f}v </s>
-1.036715	g|-}g a}a	-0.155172
-1.124855	g|-}g b}b	-0.155172
-1.159257	g|-}g c|h}ch	-0.155172
-1.075188	g|-}g i}i	-0.155172
-1.102870	g|-}g u}u	-0.155172
-0.112986	g|e}jh </s>
-0.449664	g|g}g a}a	-0.155172
-0.462885	g|h}ey t}t	-0.155172
-0.486328	g|i}i n}n	-0.155172
-0.909993	g|i}i t}t	-0.155172
-0.761470	g|i}jh o}u	-0.155172
-0.778062	g|i}jh o}uh	-0.155172
-0.474499	g|m}_ a}_	-0.155172
-0.705301	g|u}g e}e	-0.155172
-1.143987	g|u}g e}i	-0.155172
-0.696284	g|u}g i}i	-0.155172
-0.658732	g}_ </s>
-0.719897	g}_ a}a	-0.155172
-0.415768	g}ay </s>
-0.803613	g}a|ng </s>
-0.478330	g}a|ng a}a	-0.279824
-0.957084	g}g </s>
-2.533509	g}g -|l}l	-0.155172
-1.777462	g}g -}q	-0.272920
-1.995004	g}g a|w}aw	-0.373990
-1.664878	g}g a|y}ay	-0.484214
-2.329592	g}g a}_	-0.155172
-0.943174	g}g a}a	-0.540369
-1.980196	g}g a}a|q	-0.272920
-2.569675	g}g a}e	-0.155172
-2.440192	g}g a}ey	-0.155172
-2.484349	g}g a}q|a	-0.155172
-1.745219	g}g b}b	-0.216618
-1.880860	g}g d}d	-0.200833
-1.952446	g}g e}e	-0.155172
-2.078298	g}g e}i	-0.155172
-2.675967	g}g g|i}i	-0.155172
-1.947489	g}g h}h	-0.235899
-1.303667	g}g i}i	-0.357137
-2.440192	g}g i}i|q	-0.155172
-2.705441	g}g i}i|s	-0.155172
-2.516497	g}g i}q|i	-0.155172
-1.896584	g}g k}k	-0.257985
-2.690014	g}g k}k|a	-0.155172
-1.501891	g}g l}l	-0.220943
-1.888651	g}g m}m	-0.251866
-2.340578	g}g n|g}ng	-0.155172
-1.862325	g}g n}n	-0.234181
-2.469126	g}g o|y}oy	-0.155172
-1.183294	g}g o}o	-0.415649
-1.662537	g}g o}o|q	-0.595839
-2.705441	g}g o}r|o	-0.155172
-1.343231	g}g o}u	-0.341447
-1.691505	g}g o}u|q	-0.595839
-2.652525	g}g p}_	-0.155172
-2.037679	g}g p}p	-0.179944
-2.705441	g}g r|o}er	-0.155172
-1.938580	g}g r}er	-0.155172
-1.530220	g}g r}r	-0.272920
-1.833367	g}g s}s	-0.234181
-1.579857	g}g t}t	-0.289151
-2.705441	g}g u|i}y	-0.155172
-2.221036	g}g u}a	-0.279824
-2.400113	g}g u}o	-0.155172
-2.652525	g}g u}q|u	-0.155172
-1.194276	g}g u}u	-0.337254
-2.609127	g}g u}y|u	-0.155172
-1.646490	g}g w}w	-0.274881
-2.426417	g}g y}i	-0.155172
-1.925549	g}g y}y	-0.224948
-0.482157	g}g|k t}a|t	-0.155172
-0.465512	g}h e}e	-0.155172
-1.635439	g}jh e|r}er	-0.155172
-0.269506	g}jh e}e	-0.375365
-1.622089	g}jh e}i	-0.155172
-1.176630	g}jh i}i	-0.155172
-1.221273	g}jh y}i	-0.155172
-0.658732	g}jh|i </s>
-0.782140	g}jh|i o}q|ow	-0.155172
-0.449664	g}l|g a}a	-0.155172
-0.449664	g}ng a}a	-0.155172
-0.415768	g}ng|a </s>
-0.468819	h|i}h d}d	-0.155172
-0.482366	h|o}h y|y}oy	-0.155172
-0.861107	h}_ </s>
-1.759612	h}_ a}_	-0.155172
-1.113274	h}_ a}a	-0.155172
-1.743965	h}_ e}i	-0.155172
-1.150820	h}_ i}i	-0.155172
-1.810247	h}_ i}i|q	-0.155172
-1.841158	h}_ i}q|i	-0.155172
-1.616192	h}_ l}l	-0.155172
-1.146916	h}_ n}n	-0.234181
-1.881412	h}_ o|o}u	-0.155172
-1.586682	h}_ o}o	-0.155172
-1.381444	h}_ o}u	-0.279824
-1.904385	h}_ r|i}er	-0.155172
-1.743965	h}_ r}er	-0.155172
-1.368306	h}_ r}r	-0.155172
-1.604889	h}_ t}t	-0.155172
-0.459298	h}b|h i}i	-0.155172
-1.413922	h}h a|w}aw	-0.352101
-1.746272	h}h a|y}ay	-0.308123
-2.369000	h}h a|y}ey	-0.155172
-0.759220	h}h a}a	-0.526876
-1.222335	h}h a}a|q	-0.741967
-1.372015	h}h e}e	-0.224948
-2.403386	h}h i|g}ay	-0.155172
-2.415481	h}h i|y}i	-0.155172
-2.279671	h}h i}e	-0.155172
-0.890312	h}h i}i	-0.418301
-1.413922	h}h i}i|q	-0.595839
-1.992989	h}h o|u}aw	-0.279824
-1.948938	h}h o|y}oy	-0.279824
-1.065622	h}h o}o	-0.298550
-1.966026	h}h o}ow	-0.155172
-2.245192	h}h o}o|q	-0.155172
-1.523150	h}h o}u	-0.352101
-2.427922	h}h o}y|u	-0.155172
-2.427922	h}h u|w}w	-0.155172
-2.435226	h}h u|y}uy	-0.155172
-2.369000	h}h u}a	-0.155172
-1.928482	h}h u}o	-0.155172
-1.131174	h}h u}u	-0.391359
-2.391619	h}h u}y|u	-0.155172
-2.169351	h}h y}y	-0.155172
-0.449664	h}h|o a}a	-0.155172
-0.461251	h}p o}o	-0.155172
-0.476521	h}w a}a|q	-0.155172
-0.462885	i|c}k t}t	-0.155172
-0.298830	i|g}ay h}_	-0.272920
-1.107182	i|g}ay n}n	-0.155172
-0.470815	i|g}g b}b	-0.155172
-0.459298	i|k}k i}i	-0.155172
-0.415768	i|l}ey </s>
-0.658732	i|l}l </s>
-0.738021	i|l}l i}i	-0.155172
-0.415768	i|r}er </s>
-0.482366	i|s}q l}ay|l	-0.155172
-0.482366	i|s}v e|d}ay	-0.155172
-0.482366	i|t}i e|s}t	-0.155172
-0.449664	i|y}h a}a	-0.155172
-0.376623	i|y}i </s>
-1.082125	i|y}i o}q|u	-0.155172
-0.476521	i|y}ny a}a|q	-0.155172
-0.867231	i|y}y a}a	-0.155172
-0.909971	i|y}y e}e	-0.155172
-0.910889	i|y}y u}u	-0.155172
-0.463868	i} l}l	-0.155172
-0.293661	i}I </s>
-0.469483	i}a m}m	-0.155172
-1.889935	i}ay -|h}h	-0.155172
-1.883230	i}ay a}ae	-0.155172
-1.863714	i}ay c|e}s	-0.155172
-1.777459	i}ay c}k	-0.155172
-1.821324	i}ay f}f	-0.155172
-1.889935	i}ay f}p	-0.155172
-1.896745	i}ay j}jh	-0.155172
-1.705529	i}ay k}k	-0.155172
-1.339610	i}ay l}l	-0.279824
-1.373229	i}ay m}m	-0.279824
-0.741095	i}ay n}n	-0.250943
-1.889935	i}ay o}q|o	-0.155172
-1.343433	i}ay s}s	-0.155172
-1.617795	i}ay t}t	-0.155172
-1.456866	i}ay v|e}v	-0.279824
-1.247424	i}ay z}z	-0.234181
-1.127916	i}e </s>
-1.838039	i}e b}b	-0.155172
-2.004593	i}e c|e}s	-0.155172
-1.907543	i}e c}k	-0.155172
-1.809364	i}e d}d	-0.155172
-1.520607	i}e g}g	-0.155172
-1.123778	i}e l}l	-0.213041
-1.508874	i}e m}m	-0.155172
-1.362170	i}e n|g}ng	-0.155172
-0.883923	i}e n}n	-0.235899
-1.879479	i}e r}er	-0.155172
-0.903006	i}e r}r	-0.213041
-1.475463	i}e s}s	-0.155172
-1.120926	i}e t}t	-0.213041
-2.042445	i}e v}b	-0.155172
-0.736174	i}ey n}n	-0.155172
-0.757580	i}ey r}r	-0.155172
-0.293661	i}e|q </s>
-0.461251	i}e|y o}o	-0.155172
-0.482366	i}f v}o|er	-0.155172
-0.458325	i}h|i n}n	-0.155172
-1.315852	i}i </s>
-3.049788	i}i -|d}d	-0.155172
-2.977237	i}i -|k}k	-0.155172
-2.530194	i}i -|l}l	-0.279824
-2.104316	i}i -}q	-0.308123
-2.012870	i}i a}a	-0.155172
-3.008975	i}i a}q	-0.155172
-1.720086	i}i a}q|a	-0.391835
-3.049788	i}i a}q|ay	-0.155172
-1.552759	i}i b}b	-0.384026
-2.378121	i}i c|e}s	-0.234181
-2.488524	i}i c|h}ch	-0.155172
-3.028293	i}i c|h}sh	-0.155172
-2.552631	i}i c|i}sh	-0.279824
-1.703477	i}i c}k	-0.408284
-2.165896	i}i c}s	-0.272920
-3.049788	i}i d|e}jh	-0.155172
-1.477793	i}i d}d	-0.393551
-1.994319	i}i e}_	-0.272920
-2.020563	i}i f}f	-0.155172
-2.601314	i}i f}p	-0.155172
-2.977237	i}i g|u}g	-0.155172
-3.028293	i}i g}_	-0.155172
-1.372390	i}i g}g	-0.453641
-2.803087	i}i g}jh	-0.155172
-1.432685	i}i h}h	-0.532240
-2.219714	i}i i}i	-0.155172
-1.851663	i}i i}q|i	-0.295853
-1.395438	i}i k}k	-0.441578
-2.601314	i}i l|i}ly	-0.155172
-2.564300	i}i l|l}l	-0.155172
-2.423333	i}i l|l}ly	-0.250943
-3.028293	i}i l|o}l	-0.155172
-2.205449	i}i l|y}ly	-0.413023
-1.214913	i}i l}l	-0.588768
-3.028293	i}i m|m}m	-0.155172
-1.449176	i}i m}m	-0.471393
-2.393808	i}i n|-}n	-0.155172
-1.270154	i}i n|g}ng	-0.542495
-2.846143	i}i n|i}ny	-0.155172
-2.385893	i}i n|y}ny	-0.155172
-2.893943	i}i n}_	-0.155172
-3.028293	i}i n}d	-0.155172
-1.075889	i}i n}n	-0.579997
-2.919972	i}i n}ng	-0.155172
-2.200303	i}i n}ny	-0.251866
-2.253057	i}i o}o	-0.155172
-2.635202	i}i o}o|q	-0.155172
-1.397849	i}i p}p	-0.521327
-2.919972	i}i q|u}k	-0.155172
-1.479735	i}i r}r	-0.520432
-2.576291	i}i s|h}sh	-0.155172
-2.947661	i}i s|s}s	-0.155172
-3.008975	i}i s|t}s	-0.155172
-2.165896	i}i s|y}sh	-0.221975
-1.271071	i}i s}s	-0.539103
-2.576291	i}i s}sh	-0.155172
-2.977237	i}i t}ch	-0.155172
-1.230821	i}i t}t	-0.572429
-3.049788	i}i t}t|o	-0.155172
-2.200303	i}i u}q|u	-0.155172
-2.222229	i}i u}u	-0.279824
-3.049788	i}i v|e}b	-0.155172
-2.614387	i}i v|e}v	-0.279824
-2.142888	i}i v}v	-0.234181
-1.888790	i}i w}w	-0.419048
-2.919972	i}i x}k|s	-0.155172
-1.488586	i}i y}y	-0.607012
-2.393808	i}i z}s	-0.234181
-2.401869	i}i z}z	-0.234181
-0.719897	i}iy a}a	-0.155172
-0.749904	i}iy e}e	-0.155172
-0.475846	i}i|n o}o|q	-0.155172
-0.160029	i}i|q </s>
-1.095693	i}i|q o}o	-0.155172
-1.308843	i}i|q o}u	-0.279824
-0.415768	i}i|s </s>
-0.239063	i}i|y a}a	-0.484214
-1.316995	i}i|y e}e	-0.155172
-1.301198	i}i|y o}o	-0.155172
-0.482366	i}ly|o l}n|p	-0.155172
-0.415768	i}n|i </s>
-0.482366	i}o|r e}y|e	-0.155172
-0.958593	i}q g|h}ey	-0.155172
-0.892896	i}q i}i	-0.155172
-0.890260	i}q n}n	-0.155172
-0.782140	i}q|ay d}d|i	-0.155172
-0.757580	i}q|ay r}r	-0.155172
-0.757580	i}q|e m}m	-0.155172
-0.736174	i}q|e n}n	-0.155172
-1.350870	i}q|i </s>
-1.596480	i}q|i b}b	-0.234181
-1.968970	i}q|i c}k	-0.155172
-1.419043	i}q|i d}d	-0.308123
-1.008446	i}q|i g}g	-0.183143
-1.628325	i}q|i h}h	-0.213041
-1.713667	i}q|i i}i	-0.155172
-2.065898	i}q|i i}q|i	-0.155172
-1.590382	i}q|i k}k	-0.155172
-1.213273	i}q|i l}l	-0.220943
-1.423143	i}q|i m}m	-0.192882
-1.700011	i}q|i n|-}n	-0.155172
-1.457422	i}q|i n|g}ng	-0.262266
-2.103694	i}q|i n|y}ny	-0.155172
-0.978577	i}q|i n}n	-0.261673
-2.113680	i}q|i n}ng	-0.155172
-1.599561	i}q|i p}p	-0.221975
-1.393293	i}q|i s}s	-0.224104
-2.151373	i}q|i s}s|a	-0.155172
-1.528412	i}q|i t}t	-0.155172
-1.612111	i}q|i y}y	-0.213041
-0.482366	i}q|o s}er|g	-0.155172
-0.482366	i}t i}u	-0.155172
-0.415768	i}u </s>
-0.462885	i}w|i t}t	-0.155172
-0.932064	i}y a}a	-0.155172
-1.428151	i}y a}a|q	-0.155172
-1.419896	i}y e|r}er	-0.155172
-1.475040	i}y e|w}u	-0.155172
-0.977827	i}y e}e	-0.155172
-1.316138	i}y o}o	-0.155172
-1.422630	i}y o}o|q	-0.155172
-1.347277	i}y u}u	-0.155172
-0.489027	j}h o}o	-0.155172
-0.917190	j}h u}u	-0.155172
-0.480254	j}h|u u}w	-0.155172
-1.624784	j}jh a|y}ey	-0.155172
-0.905680	j}jh a}a	-0.155172
-1.591075	j}jh a}ey	-0.155172
-1.465247	j}jh e}e	-0.155172
-1.103261	j}jh i}i	-0.155172
-1.599260	j}jh o|y}oy	-0.155172
-1.611835	j}jh o}a	-0.155172
-1.633637	j}jh o}ao	-0.155172
-1.427489	j}jh o}o	-0.155172
-1.649919	j}jh u|d}a	-0.155172
-1.649919	j}jh u|i}u	-0.155172
-1.468292	j}jh u}u	-0.155172
-0.658732	j}jh|ey </s>
-0.780096	j}jh|ey c}s|i	-0.155172
-0.415768	k|a} </s>
-0.634644	k}_ </s>
-1.179040	k}_ 1|2}#	-0.155172
-0.718446	k}_ a}_	-0.155172
-0.449664	k}g|k a}a	-0.155172
-1.024780	k}k </s>
-2.532443	k}k -|l}l	-0.155172
-2.626676	k}k -|s}s	-0.155172
-2.626676	k}k -|t}t	-0.155172
-1.948934	k}k -}q	-0.234181
-2.648251	k}k a|u}aw	-0.155172
-1.800371	k}k a|w}aw	-0.405033
-1.787990	k}k a|y}ay	-0.405033
-2.567722	k}k a|y}ey	-0.155172
-2.095527	k}k a}_	-0.155172
-0.916956	k}k a}a	-0.524022
-2.684538	k}k a}a|g	-0.155172
-1.353903	k}k a}a|q	-0.491847
-2.441105	k}k a}ey	-0.155172
-2.228323	k}k b}b	-0.155172
-2.001230	k}k d}d	-0.155172
-2.684538	k}k e|y}ey	-0.155172
-2.108098	k}k e}_	-0.155172
-2.111094	k}k e}e	-0.155172
-2.670953	k}k e}ey	-0.155172
-2.301434	k}k e}i	-0.155172
-2.499815	k}k h}_	-0.155172
-2.089376	k}k h}h	-0.279824
-2.699441	k}k i|g}g	-0.155172
-1.138503	k}k i}i	-0.367124
-1.366520	k}k l}l	-0.343706
-1.865339	k}k n}n	-0.155172
-2.684538	k}k o|-}o	-0.155172
-2.699441	k}k o|r}o	-0.155172
-1.216304	k}k o}o	-0.466801
-2.532443	k}k o}ow	-0.155172
-1.966985	k}k o}o|q	-0.373990
-1.393963	k}k o}u	-0.333972
-2.549724	k}k o}uh	-0.155172
-2.208044	k}k o}u|q	-0.279824
-2.037614	k}k p}p	-0.155172
-1.730884	k}k r}r	-0.272920
-2.232820	k}k s|i}sh	-0.279824
-2.192279	k}k s|y}sh	-0.279824
-1.586395	k}k s}s	-0.206217
-2.606122	k}k s}sh	-0.155172
-1.310136	k}k t}t	-0.388286
-2.567722	k}k u}a	-0.155172
-2.134386	k}k u}o	-0.155172
-2.626676	k}k u}o|q	-0.155172
-1.373514	k}k u}u	-0.297924
-2.670953	k}k u}u|q	-0.155172
-2.216147	k}k u}w	-0.155172
-1.545992	k}k w}w	-0.365430
-2.427589	k}k y}i	-0.155172
-1.923190	k}k y}y	-0.155172
-1.082255	k}k|a a}b|a	-0.155172
-1.083086	k}k|a a}h|e	-0.155172
-1.068077	k}k|a a}q|a	-0.155172
-1.039984	k}k|a g}g	-0.155172
-0.482157	k}q|a o}k|o	-0.155172
-0.482157	k}t|i o}k|o	-0.155172
-0.482366	l|-}l y|o}y	-0.155172
-0.461251	l|e}ly o}o	-0.155172
-0.482157	l|i}_ b}_	-0.155172
-0.807257	l|i}ly a}a	-0.155172
-0.830927	l|i}ly o}o	-0.279824
-1.286471	l|i}ly o}o|q	-0.155172
-1.310259	l|i}ly o}uh	-0.155172
-1.232145	l|i}ly u}u	-0.155172
-1.133368	l|l}l </s>
-1.024907	l|l}l a}a	-0.213041
-0.918111	l|l}l e}_	-0.373990
-1.079632	l|l}l e}e	-0.155172
-1.464495	l|l}l m}m	-0.155172
-1.591672	l|l}l o|w}ow	-0.155172
-1.546915	l|l}l o|y}oy	-0.155172
-1.423211	l|l}l s}s	-0.155172
-1.536567	l|l}l y}i	-0.155172
-1.036715	l|l}ly a}a	-0.155172
-1.101443	l|l}ly e}e	-0.155172
-1.083309	l|l}ly o}o	-0.155172
-1.167471	l|l}ly o}uh	-0.155172
-1.179550	l|l}ly o}|o	-0.155172
-0.323118	l|o}l u}u	-0.279824
-0.401383	l|y}ly a}a	-0.155172
-1.018749	l|y}ly o}o	-0.155172
-0.479572	l}_ -|l}l	-0.155172
-0.449664	l}ay|l a}a	-0.155172
-0.415768	l}a|er </s>
-1.088114	l}l </s>
-2.079151	l}l -}q	-0.250943
-2.854532	l}l a|j}ow	-0.155172
-2.854532	l}l a|l}_	-0.155172
-2.417590	l}l a|o}aw	-0.279824
-2.788499	l}l a|u}aw	-0.155172
-1.950047	l}l a|w}aw	-0.352101
-1.810482	l}l a|y}ay	-0.595839
-2.079151	l}l a}_	-0.155172
-0.935758	l}l a}a	-0.596581
-2.835072	l}l a}a|g	-0.155172
-2.761308	l}l a}a|ng	-0.155172
-1.938004	l}l a}a|q	-0.192882
-2.361630	l}l a}e	-0.155172
-2.131499	l}l a}ey	-0.234181
-2.312065	l}l a}q|a	-0.155172
-2.137093	l}l b}b	-0.213041
-2.440658	l}l c}k	-0.155172
-2.163562	l}l c}s	-0.234181
-1.855336	l}l d}d	-0.234181
-2.854532	l}l e|i}ey	-0.155172
-2.453441	l}l e|r}er	-0.155172
-1.707348	l}l e}_	-0.250943
-1.466463	l}l e}e	-0.343767
-2.817507	l}l e}e|y	-0.155172
-1.555854	l}l e}i	-0.225601
-2.788499	l}l e}i|y	-0.155172
-2.555318	l}l f}f	-0.155172
-2.310950	l}l g}g	-0.155172
-2.204710	l}l h}h	-0.155172
-2.394334	l}l i|g}ay	-0.279824
-2.424499	l}l i}I	-0.279824
-2.854532	l}l i}a	-0.155172
-1.834762	l}l i}ay	-0.155172
-2.523693	l}l i}e	-0.155172
-2.835072	l}l i}e|q	-0.155172
-1.065664	l}l i}i	-0.487719
-1.643721	l}l i}i|q	-0.551161
-2.711555	l}l i}i|y	-0.155172
-2.013190	l}l k}k	-0.155172
-2.112742	l}l m}m	-0.155172
-2.428241	l}l n|g}ng	-0.155172
-2.761308	l}l o|o}u	-0.155172
-2.854532	l}l o|o}uh	-0.155172
-2.854532	l}l o|t}a	-0.155172
-2.302796	l}l o|y}oy	-0.234181
-2.626448	l}l o}a	-0.155172
-2.735719	l}l o}ao	-0.155172
-2.854532	l}l o}ay|q	-0.155172
-1.013985	l}l o}o	-0.512101
-2.341121	l}l o}ow	-0.155172
-1.712029	l}l o}o|q	-0.479970
-1.398683	l}l o}u	-0.288694
-2.666920	l}l o}uh	-0.155172
-2.666920	l}l o}u|q	-0.155172
-2.735719	l}l p|h}f	-0.155172
-2.835072	l}l p}f	-0.155172
-2.310950	l}l p}p	-0.155172
-2.735719	l}l t|h}th	-0.155172
-1.800092	l}l t}t	-0.179944
-2.835072	l}l u|t}t	-0.155172
-1.938004	l}l u}o	-0.155172
-1.273979	l}l u}u	-0.420440
-2.761308	l}l u}uh	-0.155172
-2.817507	l}l u}u|q	-0.155172
-2.417590	l}l v}b	-0.279824
-2.381844	l}l w}w	-0.155172
-1.819429	l}l y}i	-0.234181
-2.169587	l}l y}y	-0.155172
-0.482366	l}l|e v}v|a	-0.155172
-0.482366	l}n|p y}e|s	-0.155172
-0.958774	l}o l|-}l	-0.155172
-0.491440	l}o l}l	-0.279824
-0.477197	l}r i}e	-0.155172
-0.474499	m|g} a}_	-0.155172
-0.938379	m|m}m e|r}er	-0.155172
-0.909971	m|m}m e}e	-0.155172
-0.892896	m|m}m i}i	-0.155172
-0.458325	m|u}e n}n	-0.155172
-1.029294	m}m </s>
-2.601810	m}m -|s}s	-0.155172
-2.077279	m}m -}q	-0.155172
-1.946326	m}m a|y}ay	-0.308123
-2.547834	m}m a|y}ey	-0.155172
-2.327134	m}m a}_	-0.155172
-0.951881	m}m a}a	-0.450427
-1.761885	m}m a}a|q	-0.227447
-2.547834	m}m a}e	-0.155172
-2.430015	m}m a}ey	-0.155172
-1.426302	m}m b}b	-0.281828
-1.989455	m}m d}d	-0.155172
-2.654150	m}m e|i}e	-0.155172
-2.094804	m}m e|r}er	-0.155172
-2.654150	m}m e|y}ey	-0.155172
-2.088883	m}m e}_	-0.155172
-1.156614	m}m e}e	-0.354895
-1.913702	m}m e}i	-0.213041
-2.621403	m}m e}i|y	-0.155172
-2.641922	m}m g}a|ng	-0.155172
-2.235692	m}m g}g	-0.155172
-2.667520	m}m g}ng	-0.155172
-2.654150	m}m i|l}l	-0.155172
-2.484941	m}m i}ay	-0.155172
-1.959220	m}m i}e	-0.155172
-0.990086	m}m i}i	-0.409868
-2.430015	m}m i}i|q	-0.155172
-1.924419	m}m l}l	-0.155172
-2.667520	m}m m|u}e	-0.155172
-2.235689	m}m m}y	-0.279824
-1.762604	m}m n}n	-0.234181
-2.621403	m}m o|u}aw	-0.155172
-1.229414	m}m o}o	-0.390727
-1.626702	m}m o}o|q	-0.352101
-1.363030	m}m o}u	-0.402781
-1.995604	m}m o}u|q	-0.373990
-1.209355	m}m p}p	-0.375618
-2.196305	m}m r}r	-0.155172
-1.932548	m}m s}s	-0.155172
-1.912504	m}m t}t	-0.279824
-1.950581	m}m u}o	-0.155172
-1.481106	m}m u}u	-0.322931
-2.547834	m}m u}w	-0.155172
-2.269994	m}m y}y	-0.155172
-0.482366	m}m|i i}ly|o	-0.155172
-0.459298	m}n i}i	-0.155172
-0.465842	m}y u}u	-0.155172
-1.103656	n|-}n </s>
-1.057417	n|-}n c|h}ch	-0.279824
-1.490371	n|-}n c}s	-0.155172
-1.403475	n|-}n d}d	-0.155172
-1.413758	n|-}n k}k	-0.155172
-1.002622	n|-}n o}o	-0.279824
-1.034012	n|-}n p}p	-0.279824
-1.381193	n|-}n u}u	-0.155172
-0.482366	n|c}n e|d}s	-0.155172
-0.139593	n|d}n </s>
-0.324413	n|g}_ </s>
-1.383567	n|g}_ a}	-0.155172
-1.328085	n|g}_ g}g	-0.155172
-1.303671	n|g}_ u}u	-0.155172
-0.415768	n|g}ang </s>
-0.449664	n|g}k a}a	-0.155172
-0.737227	n|g}ng </s>
-2.492915	n|g}ng -|a}a	-0.155172
-2.469571	n|g}ng -|b}b	-0.155172
-2.480737	n|g}ng -|g}g	-0.155172
-2.450772	n|g}ng -|k}k	-0.155172
-2.352416	n|g}ng -|l}l	-0.155172
-2.480737	n|g}ng -|m}m	-0.155172
-1.757860	n|g}ng -}q	-0.192882
-2.272273	n|g}ng a|w}aw	-0.155172
-1.941133	n|g}ng a|y}ay	-0.279824
-1.126457	n|g}ng a}a	-0.377418
-2.492915	n|g}ng a}aw	-0.155172
-2.492915	n|g}ng a}a|m	-0.155172
-2.432754	n|g}ng a}a|ng	-0.155172
-1.780845	n|g}ng a}a|q	-0.308123
-2.310498	n|g}ng a}q|a	-0.155172
-2.078676	n|g}ng b}b	-0.155172
-1.698656	n|g}ng d}d	-0.373990
-1.968849	n|g}ng e}e	-0.155172
-2.469571	n|g}ng g|i}i	-0.155172
-2.480737	n|g}ng g}_	-0.155172
-1.254445	n|g}ng g}g	-0.305533
-1.754145	n|g}ng h}h	-0.234181
-2.450772	n|g}ng i|y}i	-0.155172
-1.369428	n|g}ng i}i	-0.225601
-1.964511	n|g}ng i}i|q	-0.279824
-1.250948	n|g}ng k}k	-0.399002
-2.492915	n|g}ng k}t|i	-0.155172
-1.652377	n|g}ng l}l	-0.308123
-1.852495	n|g}ng n}n	-0.155172
-2.297379	n|g}ng o|y}oy	-0.155172
-2.337989	n|g}ng o}a	-0.155172
-1.486254	n|g}ng o}o	-0.317835
-1.429892	n|g}ng o}u	-0.242481
-2.086557	n|g}ng p}p	-0.155172
-2.146136	n|g}ng r}er	-0.155172
-2.048508	n|g}ng r}r	-0.155172
-1.506691	n|g}ng s}s	-0.192882
-1.758127	n|g}ng t}t	-0.213041
-2.237142	n|g}ng u}o	-0.155172
-2.432754	n|g}ng u}o|q	-0.155172
-1.793099	n|g}ng u}u	-0.155172
-2.492915	n|g}ng y}a|y	-0.155172
-1.882661	n|g}ng y}y	-0.155172
-0.449664	n|g}ny a}a	-0.155172
-0.481277	n|g}q a}a|ng	-0.155172
-0.449664	n|g}s a}a	-0.155172
-0.415768	n|i}n </s>
-1.433629	n|i}ny e}e	-0.155172
-1.488789	n|i}ny e}i	-0.155172
-0.656795	n|i}ny o}o	-0.405033
-1.435792	n|i}ny u}u	-0.155172
-0.679382	n|i}ny y|a}a	-0.251866
-1.554833	n|i}ny y|o}o	-0.155172
-0.709983	n|y}ny a}a	-0.317889
-1.577071	n|y}ny a}a|q	-0.155172
-0.583999	n|y}ny o}o	-0.365430
-1.571815	n|y}ny o}o|q	-0.155172
-0.947842	n|y}ny o}u	-0.155172
-0.910095	n}_ </s>
-1.302966	n}_ a}a	-0.155172
-1.511680	n}_ e}_	-0.155172
-1.472296	n}_ g}g	-0.155172
-1.591332	n}_ i|y}ny	-0.155172
-1.371895	n}_ i}i	-0.155172
-1.570451	n}_ i}y	-0.155172
-1.562655	n}_ n|i}ny	-0.155172
-1.048686	n}_ n}n	-0.155172
-1.588824	n}_ t|y}ch	-0.155172
-1.400187	n}_ t}t	-0.155172
-0.658732	n}d </s>
-0.750539	n}d u}u	-0.155172
-0.719897	n}m a}a	-0.155172
-0.782140	n}m g}a|ng	-0.155172
-0.482366	n}m|a g}ng|a	-0.155172
-0.944281	n}n </s>
-2.473412	n}n -|h}h	-0.279824
-2.693149	n}n -|l}l	-0.155172
-1.768113	n}n -}q	-0.308825
-2.880366	n}n a|o}aw	-0.155172
-2.191453	n}n a|w}aw	-0.373990
-1.703651	n}n a|y}ay	-0.609153
-2.450007	n}n a}_	-0.155172
-1.080840	n}n a}a	-0.534657
-2.460506	n}n a}ae	-0.279824
-2.818168	n}n a}a|ng	-0.155172
-1.705883	n}n a}a|q	-0.354895
-2.738933	n}n a}e	-0.155172
-2.072471	n}n b}b	-0.155172
-2.249976	n}n c|e}s	-0.373990
-2.423941	n}n c|i}sh	-0.279824
-2.475570	n}n c}k	-0.155172
-1.906563	n}n c}s	-0.393130
-2.848155	n}n d|i}jh	-0.155172
-1.382643	n}n d}d	-0.416999
-2.285065	n}n e|r}er	-0.155172
-1.575734	n}n e}_	-0.599513
-1.443992	n}n e}e	-0.333929
-1.850032	n}n e}i	-0.200833
-2.848155	n}n e}i|y	-0.155172
-2.348975	n}n f}f	-0.155172
-2.790120	n}n g|e}jh	-0.155172
-2.880366	n}n g}a|ng	-0.155172
-2.186719	n}n g}g	-0.155172
-2.390217	n}n g}jh	-0.155172
-2.651734	n}n h}_	-0.155172
-1.626531	n}n h}h	-0.333345
-2.818168	n}n i|g}ay	-0.155172
-2.651734	n}n i}ay	-0.155172
-2.184662	n}n i}e	-0.155172
-1.293733	n}n i}i	-0.426363
-2.921843	n}n i}i|n	-0.155172
-2.579150	n}n i}i|q	-0.155172
-2.921843	n}n i}q|o	-0.155172
-2.880366	n}n j}jh	-0.155172
-2.312797	n}n k}k	-0.155172
-1.859213	n}n l}l	-0.365430
-2.295064	n}n m}m	-0.155172
-1.817270	n}n n}_	-0.275975
-2.494534	n}n o|-}o	-0.279824
-2.358924	n}n o|y}oy	-0.279824
-2.818168	n}n o|y}uy	-0.155172
-2.790120	n}n o}ao	-0.155172
-1.298961	n}n o}o	-0.414755
-2.693149	n}n o}ow	-0.155172
-1.992327	n}n o}o|q	-0.308123
-1.673556	n}n o}u	-0.309340
-2.715438	n}n o}uh	-0.155172
-2.412406	n}n o}u|q	-0.155172
-2.502995	n}n p}a|p	-0.155172
-2.340832	n}n p}p	-0.155172
-1.917036	n}n r}r	-0.155172
-2.790120	n}n s|i}sh	-0.155172
-2.227096	n}n s|y}sh	-0.373990
-2.921843	n}n s}ch	-0.155172
-1.403227	n}n s}s	-0.286793
-2.447973	n}n t|h}th	-0.279824
-2.880366	n}n t|i}ch	-0.155172
-2.790120	n}n t|i}sh	-0.155172
-2.818168	n}n t|s}ch	-0.155172
-2.899990	n}n t}a|t	-0.155172
-1.160212	n}n t}t	-0.445563
-2.001068	n}n u}o	-0.293743
-1.531628	n}n u}u	-0.343557
-2.818168	n}n u}uh	-0.155172
-2.191453	n}n v}v	-0.234181
-2.116234	n}n w}w	-0.155172
-2.880366	n}n y}e	-0.155172
-2.184662	n}n y}i	-0.373990
-2.214679	n}n y}y	-0.155172
-2.790120	n}n z}s	-0.155172
-0.808014	n}ng </s>
-1.353599	n}ng a}a	-0.155172
-1.529330	n}ng c}k	-0.155172
-1.479533	n}ng d}d	-0.155172
-0.559116	n}ng g}g	-0.235899
-1.489553	n}ng k}k	-0.155172
-1.443894	n}ng l}l	-0.155172
-0.807257	n}ny a}a	-0.200833
-1.322660	n}ny e|w}u	-0.155172
-0.860279	n}ny e}_	-0.279824
-1.208945	n}ny o}o	-0.155172
-1.232145	n}ny u}u	-0.155172
-0.459298	n}n|d i}i	-0.155172
-0.415768	n}o|n </s>
-0.482366	n}q|i i}n|i	-0.155172
-0.783614	n}s </s>
-0.867231	n}s a}a	-0.155172
-0.892896	n}s i}i	-0.155172
-0.756291	o|-}o d}d	-0.155172
-0.776711	o|-}o s|y}sh	-0.155172
-0.293661	o|2}# </s>
-0.325586	o|c}aw k}k	-0.279824
-0.905412	o|i}oy l}l	-0.155172
-0.890260	o|i}oy n}n	-0.155172
-0.902700	o|i}oy t}t	-0.155172
-0.449664	o|n}n a}a	-0.155172
-0.934520	o|o}u </s>
-1.120901	o|o}u d}d	-0.155172
-0.700316	o|o}u l}l	-0.279824
-1.096929	o|o}u t}t	-0.155172
-0.468819	o|o}uh d}d	-0.155172
-0.462885	o|r}o t}t	-0.155172
-0.462885	o|t}a t}t	-0.155172
-0.994254	o|u}aw n}n	-0.155172
-1.033845	o|u}aw r}r	-0.155172
-1.015932	o|u}aw s}s	-0.155172
-1.082255	o|u}aw t|h}dh	-0.155172
-0.482366	o|v}o i|s}v	-0.155172
-1.112875	o|w}aw e}e	-0.155172
-1.130555	o|w}aw k}k	-0.155172
-0.499271	o|w}aw n}n	-0.373990
-0.415768	o|w}ow </s>
-0.106593	o|y}oy </s>
-1.652442	o|y}oy -|t}t	-0.155172
-1.602551	o|y}oy d}d	-0.155172
-0.139593	o|y}uy </s>
-0.903195	o}a </s>
-1.488539	o}a c}k	-0.155172
-1.522919	o}a h}_	-0.155172
-1.063842	o}a m}m	-0.155172
-1.027022	o}a n}n	-0.155172
-1.389547	o}a t}t	-0.155172
-1.510100	o}a v}v	-0.155172
-1.077620	o}a w}w	-0.279824
-1.232141	o}ao f}f	-0.155172
-1.237954	o}ao h}_	-0.155172
-1.249818	o}ao n|-}n	-0.155172
-1.215156	o}ao n|g}ng	-0.155172
-1.131263	o}ao n}n	-0.155172
-1.195259	o}ao p}p	-0.155172
-0.462885	o}aw t}t	-0.155172
-0.476183	o}ay|q a|y}ay	-0.155172
-0.478553	o}h|a a}q|a	-0.155172
-0.464525	o}h|o s}s	-0.155172
-0.415768	o}i </s>
-0.328260	o}k|o n|g}ng	-0.279824
-0.819149	o}o </s>
-2.909215	o}o -|b}b	-0.155172
-2.885631	o}o -|h}h	-0.155172
-2.480545	o}o -|p}p	-0.155172
-2.561351	o}o a}_	-0.155172
-2.048983	o}o a}q|a	-0.272920
-1.524762	o}o b}b	-0.234932
-2.701347	o}o c|h}ch	-0.155172
-2.938879	o}o c|o}k	-0.155172
-2.016770	o}o c}k	-0.213041
-2.748912	o}o c}s	-0.155172
-1.398371	o}o d}d	-0.517538
-2.938879	o}o e}w|e	-0.155172
-2.909215	o}o f|f}f	-0.155172
-2.938879	o}o f}b	-0.155172
-2.686583	o}o f}f	-0.155172
-2.923351	o}o f}v	-0.155172
-1.308421	o}o g}g	-0.503489
-2.429475	o}o g}jh	-0.155172
-2.180341	o}o h}h	-0.213041
-2.228442	o}o i}i	-0.155172
-2.429475	o}o i}q|i	-0.155172
-1.306602	o}o k}k	-0.528477
-2.821709	o}o l|l}l	-0.155172
-2.909215	o}o l|y}ly	-0.155172
-1.219345	o}o l}l	-0.548303
-2.938879	o}o l}r	-0.155172
-2.504438	o}o m|m}m	-0.234181
-1.520780	o}o m}m	-0.240808
-2.841989	o}o n|-}n	-0.155172
-2.821709	o}o n|g}_	-0.155172
-1.169062	o}o n|g}ng	-0.640508
-2.783787	o}o n|i}ny	-0.155172
-2.821709	o}o n|y}ny	-0.155172
-0.946426	o}o n}n	-0.592496
-2.841989	o}o n}ng	-0.155172
-2.923351	o}o n}s	-0.155172
-2.701347	o}o o|y}oy	-0.155172
-2.032255	o}o o}o	-0.155172
-2.841989	o}o p|h}f	-0.155172
-1.772160	o}o p}p	-0.206217
-2.498996	o}o r|r}r	-0.155172
-1.408965	o}o r}er	-0.316303
-1.366041	o}o r}r	-0.323913
-2.480545	o}o s|s}s	-0.155172
-2.748912	o}o s|y}sh	-0.155172
-1.296435	o}o s}s	-0.529936
-2.504438	o}o t|t}t	-0.155172
-1.293489	o}o t}t	-0.528117
-2.885631	o}o u|r}er	-0.155172
-2.391073	o}o v}v	-0.155172
-2.529881	o}o w}w	-0.155172
-2.504438	o}o x}h	-0.279824
-2.292816	o}o y}y	-0.155172
-0.806629	o}ow </s>
-1.535482	o}ow a}_	-0.155172
-1.499265	o}ow b}b	-0.155172
-1.502436	o}ow g}g	-0.155172
-1.492993	o}ow k}k	-0.155172
-1.437532	o}ow l}l	-0.155172
-1.079227	o}ow n}n	-0.155172
-1.102665	o}ow s}s	-0.155172
-1.606174	o}ow t|i}sh	-0.155172
-1.429388	o}ow t}t	-0.155172
-0.169723	o}o|q </s>
-1.765724	o}o|q e}e	-0.155172
-1.877425	o}o|q n}o|n	-0.155172
-0.978312	o}o|q o}o	-0.234181
-1.767691	o}o|q u}u	-0.155172
-0.744861	o}q|aw t}t	-0.155172
-0.782532	o}q|aw u|t}t	-0.155172
-1.034171	o}q|o </s>
-1.834893	o}q|o c|e}sh	-0.155172
-1.702550	o}q|o c}k	-0.155172
-1.610669	o}q|o d}d	-0.155172
-1.834893	o}q|o d}n	-0.155172
-1.826337	o}q|o f|f}f	-0.155172
-1.834893	o}q|o f|f}p	-0.155172
-1.747923	o}q|o f}f	-0.155172
-1.830466	o}q|o f}v	-0.155172
-1.642303	o}q|o g}g	-0.155172
-1.628463	o}q|o k}k	-0.155172
-1.549768	o}q|o l}l	-0.155172
-1.697197	o}q|o n|g}ng	-0.155172
-1.232924	o}q|o n}n	-0.234181
-1.642303	o}q|o p}p	-0.155172
-1.676424	o}q|o r}er	-0.155172
-1.619475	o}q|o r}r	-0.155172
-1.269091	o}q|o s}s	-0.155172
-1.538549	o}q|o t}t	-0.155172
-1.805366	o}q|o x}k|s	-0.155172
-0.783614	o}q|ow </s>
-0.954326	o}q|ow c}s|i	-0.155172
-0.957969	o}q|ow j}jh|ey	-0.155172
-0.482157	o}q|oy i|l}l	-0.155172
-1.092657	o}q|u </s>
-1.399139	o}q|u d}d	-0.155172
-1.417872	o}q|u g}g	-0.155172
-1.361528	o}q|u l}l	-0.155172
-1.404409	o}q|u m}m	-0.155172
-1.449046	o}q|u n|g}ng	-0.155172
-0.990638	o}q|u n}n	-0.155172
-1.404409	o}q|u r}r	-0.155172
-1.005194	o}q|u t}t	-0.155172
-0.482366	o}r|o r}s|q	-0.155172
-0.415768	o}s|a </s>
-0.979129	o}u </s>
-2.400832	o}u -}q	-0.155172
-1.869027	o}u a}a	-0.155172
-2.150527	o}u a}q|a	-0.279824
-1.489155	o}u b}b	-0.155172
-2.499308	o}u c|h}ch	-0.155172
-1.034024	o}u d}d	-0.577005
-1.282191	o}u g}g	-0.706063
-1.600897	o}u h}h	-0.595839
-1.406809	o}u k}k	-0.370222
-1.469015	o}u l}l	-0.257985
-1.583476	o}u m}m	-0.352101
-1.040264	o}u n|g}ng	-0.910183
-0.742555	o}u n}n	-0.718262
-2.183236	o}u n}ng	-0.279824
-1.903732	o}u p}p	-0.373990
-2.087771	o}u r}er	-0.155172
-1.583476	o}u r}r	-0.200833
-2.530550	o}u s|y}sh	-0.155172
-1.219648	o}u s}s	-0.447915
-1.267214	o}u t}t	-0.469982
-2.613593	o}u u|r}er	-0.155172
-2.634672	o}u x}h	-0.155172
-0.804289	o}uh m}m	-0.213041
-1.470821	o}uh n|-}n	-0.155172
-0.440528	o}uh n}n	-0.419048
-1.477334	o}uh v|e}v	-0.155172
-0.245204	o}u|q </s>
-1.535856	o}u|q o|y}oy	-0.155172
-1.553120	o}u|q o|y}uy	-0.155172
-1.087883	o}u|q o}u	-0.155172
-0.313754	o}w a}a	-0.155172
-0.446914	o}y|u </s>
-0.899030	o}y|u n}n	-0.155172
-0.415768	o}|o </s>
-0.782949	p|3}_ 5|0}#	-0.155172
-0.782532	p|3}_ 7|0}#	-0.155172
-0.482366	p|c}_ a|s}_	-0.155172
-1.030279	p|h}f </s>
-1.333274	p|h}f e|r}er	-0.155172
-0.889810	p|h}f e}e	-0.279824
-1.382515	p|h}f i}	-0.155172
-1.232823	p|h}f i}i	-0.155172
-1.361873	p|h}f o}ow	-0.155172
-1.306442	p|h}f o}u	-0.155172
-0.473491	p|o}po r}er	-0.155172
-1.380682	p}_ 1|0}#	-0.155172
-1.382335	p}_ 1|5}#	-0.155172
-1.380682	p}_ 1}#	-0.155172
-1.323457	p}_ a}_	-0.155172
-1.226004	p}_ i}i	-0.155172
-1.380682	p}_ o|2}#	-0.155172
-1.300333	p}_ p}p	-0.155172
-1.380682	p}_ u|p}p	-0.155172
-0.719897	p}a|p a}a	-0.155172
-0.750539	p}a|p u}u	-0.155172
-0.719897	p}f a}a	-0.155172
-0.738021	p}f i}i	-0.155172
-1.228362	p}p </s>
-2.063620	p}p -}q	-0.155172
-2.613224	p}p a|u}aw	-0.155172
-2.121550	p}p a|w}aw	-0.279824
-1.937159	p}p a|y}ay	-0.373990
-2.305107	p}p a}_	-0.155172
-0.969992	p}p a}a	-0.496506
-2.662556	p}p a}a|d	-0.155172
-1.755178	p}p a}a|q	-0.213041
-2.662556	p}p a}uh	-0.155172
-2.535223	p}p c|i}sh	-0.155172
-2.155484	p}p d}d	-0.155172
-2.648216	p}p d}t	-0.155172
-1.746382	p}p e|r}er	-0.221975
-2.326648	p}p e}_	-0.155172
-1.151154	p}p e}e	-0.450972
-2.635129	p}p e}e|y	-0.155172
-1.605801	p}p e}i	-0.187290
-2.469121	p}p h}_	-0.155172
-2.398535	p}p i}e	-0.155172
-1.137370	p}p i}i	-0.385634
-2.648216	p}p i}iy	-0.155172
-2.411764	p}p i}i|q	-0.155172
-2.553450	p}p i}y	-0.155172
-2.186335	p}p k}k	-0.155172
-1.655095	p}p l}l	-0.234181
-1.965546	p}p n}n	-0.155172
-2.635129	p}p o|i}oy	-0.155172
-2.592372	p}p o|o}u	-0.155172
-2.484728	p}p o}a	-0.155172
-2.662556	p}p o}aw	-0.155172
-2.662556	p}p o}i	-0.155172
-1.106241	p}p o}o	-0.425823
-2.164964	p}p o}ow	-0.155172
-2.088418	p}p o}o|q	-0.279824
-1.357441	p}p o}u	-0.284314
-2.613224	p}p p}_	-0.155172
-1.729307	p}p r}er	-0.200833
-1.294448	p}p r}r	-0.282115
-2.662556	p}p s|u}s	-0.155172
-1.912479	p}p s}s	-0.155172
-2.038682	p}p t}t	-0.155172
-2.635129	p}p u|w}w	-0.155172
-2.535223	p}p u}a	-0.155172
-1.625124	p}p u}o	-0.213041
-2.592372	p}p u}o|q	-0.155172
-1.191439	p}p u}u	-0.405935
-2.535223	p}p u}w	-0.155172
-2.196522	p}p u}y|u	-0.279824
-2.045908	p}p w}w	-0.155172
-2.398535	p}p y}i	-0.155172
-2.028891	p}p y}y	-0.155172
-0.293661	p}p|i </s>
-0.461251	p}q o}o	-0.155172
-0.839802	q|u}k e}e	-0.155172
-1.325148	q|u}k e}i|q	-0.155172
-0.826891	q|u}k i}i	-0.155172
-1.325148	q|u}k i}w|i	-0.155172
-1.314354	q|u}k i}y	-0.155172
-0.481619	r|a}ey n}ny	-0.155172
-0.482157	r|e}_ 2|2}#	-0.155172
-0.926151	r|e}e r}r	-0.155172
-0.492046	r|e}e s}s	-0.155172
-0.477536	r|i}ay v}v	-0.155172
-0.464525	r|i}er s}s	-0.155172
-0.482366	r|i}r a}a|y	-0.155172
-0.465842	r|o}er u}u	-0.155172
-0.289483	r|o}r o}o	-0.234181
-0.682416	r|r}r a}a	-0.279824
-1.113480	r|r}r e}e	-0.155172
-0.699111	r|r}r o}o	-0.279824
-0.293661	r|y}i </s>
-1.196844	r}er </s>
-1.153744	r}er a}a	-0.223558
-2.074875	r}er a}ae	-0.155172
-1.825172	r}er a}ey	-0.155172
-2.307491	r}er c|h}ch	-0.155172
-2.404017	r}er c|i}sh	-0.155172
-2.193902	r}er c}k	-0.155172
-1.849603	r}er c}s	-0.213041
-1.839516	r}er d}d	-0.183143
-1.944560	r}er e}_	-0.155172
-1.535937	r}er e}e	-0.200833
-1.914362	r}er e}i	-0.155172
-2.518215	r}er e}u	-0.155172
-2.293300	r}er f}f	-0.155172
-2.441632	r}er g|e}jh	-0.155172
-1.743155	r}er g}g	-0.213041
-2.019463	r}er i}ay	-0.155172
-1.820447	r}er i}e	-0.155172
-1.133461	r}er i}i	-0.258844
-2.422418	r}er i}i|y	-0.155172
-2.422418	r}er i}y	-0.155172
-1.859617	r}er k}k	-0.213041
-1.332935	r}er l}l	-0.206217
-1.566264	r}er m}m	-0.308123
-1.705390	r}er n}n	-0.213041
-2.083402	r}er o|w}aw	-0.155172
-2.353078	r}er o}a	-0.155172
-2.441632	r}er o}ao	-0.155172
-1.139298	r}er o}o	-0.251520
-2.369403	r}er o}ow	-0.155172
-1.880694	r}er o}u	-0.155172
-1.743155	r}er p}p	-0.234181
-2.532732	r}er r|a}ey	-0.155172
-2.504971	r}er r|e}e	-0.155172
-2.532732	r}er r|i}ay	-0.155172
-2.518215	r}er r|y}i	-0.155172
-2.441632	r}er s|h}sh	-0.155172
-2.441632	r}er s|i}sh	-0.155172
-2.504971	r}er s|t}s	-0.155172
-1.336005	r}er s}s	-0.183143
-2.441632	r}er t|h}th	-0.155172
-2.482816	r}er t}ch	-0.155172
-1.516835	r}er t}t	-0.274881
-2.404017	r}er u}a	-0.155172
-1.797426	r}er u}u	-0.155172
-2.461736	r}er u}uh	-0.155172
-1.825172	r}er v}v	-0.213041
-2.141648	r}er w}w	-0.155172
-1.820447	r}er y}i	-0.373990
-1.897202	r}er y}y	-0.279824
-0.458325	r}e|r n}n	-0.155172
-1.376659	r}r </s>
-2.348981	r}r -}q	-0.155172
-2.463123	r}r a|w}aw	-0.155172
-2.007356	r}r a|y}ay	-0.155172
-2.598134	r}r a|y}ey	-0.155172
-1.022721	r}r a}a	-0.456844
-1.702938	r}r a}a|q	-0.405033
-1.840955	r}r a}ey	-0.155172
-2.056757	r}r b}b	-0.155172
-2.371880	r}r c}k	-0.155172
-2.229113	r}r c}s	-0.234181
-2.023889	r}r d}d	-0.155172
-2.710453	r}r e|t}e	-0.155172
-1.101451	r}r e}e	-0.290331
-2.710453	r}r e}ey	-0.155172
-2.741894	r}r e}e|q	-0.155172
-1.336248	r}r e}i	-0.215514
-2.685545	r}r e}i|y	-0.155172
-2.639644	r}r g|e}jh	-0.155172
-2.062485	r}r g}g	-0.155172
-2.117752	r}r h}h	-0.155172
-2.685545	r}r i|y}i	-0.155172
-1.855030	r}r i}ay	-0.213041
-1.708007	r}r i}e	-0.200833
-2.741894	r}r i}e|y	-0.155172
-0.932907	r}r i}i	-0.392562
-2.463123	r}r i}i|q	-0.155172
-2.078973	r}r i}i|y	-0.234181
-2.078973	r}r i}y	-0.155172
-1.924393	r}r k}k	-0.234181
-1.951191	r}r l}l	-0.155172
-1.653009	r}r m}m	-0.317889
-1.794772	r}r n}n	-0.251866
-2.741894	r}r o|v}o	-0.155172
-2.685545	r}r o|w}aw	-0.155172
-2.204439	r}r o|y}oy	-0.279824
-1.042088	r}r o}o	-0.376246
-2.560248	r}r o}ow	-0.155172
-2.396053	r}r o}o|q	-0.155172
-1.435402	r}r o}u	-0.242131
-2.741894	r}r p|o}po	-0.155172
-2.062485	r}r p}p	-0.279824
-2.725419	r}r r|y}i	-0.155172
-2.542476	r}r s|y}sh	-0.155172
-2.100909	r}r s}s	-0.155172
-2.639644	r}r s}sh	-0.155172
-1.840699	r}r t}t	-0.257985
-2.255274	r}r u}a	-0.155172
-1.830691	r}r u}o	-0.200833
-1.544426	r}r u}u	-0.175334
-2.316749	r}r w}w	-0.155172
-2.022866	r}r y}i	-0.373990
-2.111181	r}r y}i|y	-0.234181
-1.954802	r}r y}y	-0.234181
-0.464525	r}r|o s}s	-0.155172
-0.482366	r}s|q i}o|r	-0.155172
-0.480936	s|-}s q|u}k	-0.155172
-0.806191	s|h}sh </s>
-1.330430	s|h}sh a}a	-0.155172
-1.542151	s|h}sh e}_	-0.155172
-1.450983	s|h}sh e}e	-0.155172
-1.525004	s|h}sh e}i	-0.155172
-1.614285	s|h}sh i|y}i	-0.155172
-0.907790	s|h}sh i}i	-0.155172
-1.437032	s|h}sh l}l	-0.155172
-1.586296	s|h}sh o}a	-0.155172
-1.525004	s|h}sh r}er	-0.155172
-0.415768	s|i} </s>
-0.801255	s|i}sh a}a	-0.373990
-1.360155	s|i}sh o}o	-0.155172
-1.069345	s|i}sh y|a}a	-0.213041
-1.070431	s|i}sh y|o}o	-0.279824
-1.520187	s|i}sh y|u}u	-0.155172
-1.041008	s|i}sh y}y	-0.155172
-0.482157	s|p}_ o|2}#	-0.155172
-0.749140	s|s}s </s>
-0.811480	s|s}s a}a	-0.279824
-1.236190	s|s}s e}e	-0.155172
-0.829987	s|s}s i}i	-0.155172
-0.446914	s|t}s </s>
-0.926151	s|t}s m}m	-0.155172
-0.482366	s|u}s e|y}uy	-0.155172
-0.518259	s|y}sh a}a	-0.293743
-1.065182	s|y}sh e}e	-0.234181
-0.714257	s|y}sh o}o	-0.413023
-1.272097	s|y}sh o}u	-0.279824
-1.253826	s|y}sh u}u	-0.155172
-0.459298	s}ch i}i	-0.155172
-0.482366	s}er|g a}a|n	-0.155172
-0.482366	s}i|s y}a|sh	-0.155172
-0.449664	s}m a}a	-0.155172
-0.482366	s}q|e -}s|i	-0.155172
-0.482366	s}q|i t}s|t	-0.155172
-0.969668	s}s </s>
-2.675654	s}s -|l}l	-0.155172
-1.796480	s}s -}q	-0.293743
-2.300848	s}s a|w}aw	-0.279824
-1.629110	s}s a|y}ay	-0.432193
-2.239173	s}s a}_	-0.155172
-0.959695	s}s a}a	-0.585418
-2.773073	s}s a}a|ng	-0.155172
-1.810536	s}s a}a|q	-0.251866
-2.581839	s}s a}ey	-0.155172
-2.833278	s}s a}u	-0.155172
-2.848839	s}s c|e}i	-0.155172
-2.848839	s}s c|i}a	-0.155172
-1.703849	s}s c}k	-0.257985
-2.142239	s}s d}d	-0.234181
-2.504733	s}s e|r}er	-0.155172
-2.252141	s}s e}_	-0.279824
-1.236945	s}s e}e	-0.314365
-1.550721	s}s e}i	-0.192882
-2.373608	s}s g}g	-0.155172
-2.460017	s}s h}h	-0.155172
-2.773073	s}s i|g}ay	-0.155172
-2.848839	s}s i|r}er	-0.155172
-2.420301	s}s i|y}h	-0.279824
-2.293546	s}s i}e	-0.155172
-1.078984	s}s i}i	-0.561451
-2.137980	s}s i}i|q	-0.234181
-2.795484	s}s k}_	-0.155172
-2.038868	s}s k}k	-0.206217
-2.071644	s}s l}l	-0.155172
-2.030886	s}s m}m	-0.155172
-2.481800	s}s n|g}ng	-0.155172
-2.795484	s}s o|u}aw	-0.155172
-2.339318	s}s o}a	-0.279824
-1.102956	s}s o}o	-0.462006
-2.265509	s}s o}o|q	-0.279824
-1.607695	s}s o}u	-0.333972
-2.355715	s}s o}uh	-0.155172
-1.391094	s}s p}p	-0.363835
-2.332123	s}s r}r	-0.155172
-2.209319	s}s t|i}ch	-0.308123
-1.025290	s}s t}t	-0.485957
-2.833278	s}s u|i}u	-0.155172
-2.795484	s}s u|r}er	-0.155172
-2.712043	s}s u}a	-0.155172
-2.279301	s}s u}o	-0.279824
-2.848839	s}s u}ow	-0.155172
-1.301648	s}s u}u	-0.465256
-2.773073	s}s u}uh	-0.155172
-2.712043	s}s u}w	-0.155172
-2.439275	s}s w}w	-0.155172
-2.567999	s}s y}i	-0.155172
-2.202440	s}s y}y	-0.279824
-0.938823	s}sh i}i	-0.279824
-1.392508	s}sh n|g}ng	-0.155172
-1.385357	s}sh w}w	-0.155172
-0.404114	s}sh y}y	-0.155172
-0.782949	s}s|a a}k|a	-0.155172
-0.782949	s}s|a t}n|t	-0.155172
-0.658732	s}t </s>
-0.738021	s}t i}i	-0.155172
-0.783614	s}z </s>
-0.921112	s}z m}m	-0.155172
-0.898216	s}z o}o	-0.155172
-0.867231	t|h}d a}a	-0.155172
-0.932547	t|h}d e}i	-0.155172
-0.957969	t|h}d e}uh	-0.155172
-0.769355	t|h}dh e|r}er	-0.155172
-0.782532	t|h}dh e}uh	-0.155172
-0.741471	t|h}th </s>
-1.325148	t|h}th e|w}iw	-0.155172
-1.273174	t|h}th e}i	-0.155172
-1.306203	t|h}th o}a	-0.155172
-0.830927	t|h}th o}o	-0.155172
-0.481961	t|h}y e|w}u	-0.155172
-0.682416	t|i}ch a}a	-0.155172
-0.728952	t|i}ch y|a}a	-0.279824
-1.140054	t|i}ch y}y	-0.155172
-1.176411	t|i}sh o|n}n	-0.279824
-0.582813	t|i}sh o}o	-0.484214
-0.946420	t|i}sh o}u	-0.373990
-0.963277	t|i}sh o}uh	-0.373990
-1.621087	t|i}sh o}y|u	-0.155172
-0.821666	t|s}ch a}a	-0.155172
-1.324754	t|s}ch a}y|a	-0.155172
-0.431564	t|s}ch i}i	-0.155172
-0.446914	t|t}t </s>
-0.906046	t|t}t o}o	-0.155172
-0.749904	t|y}ch e}e	-0.155172
-0.738021	t|y}ch i}i	-0.155172
-0.482366	t}ae|th t|h}y	-0.155172
-0.738021	t}a|t i}i	-0.155172
-0.782140	t}a|t u|t}u	-0.155172
-0.614694	t}ch u}u	-0.155172
-0.622167	t}ch y}y	-0.155172
-0.449664	t}n|t a}a	-0.155172
-0.779417	t}s i}i|y	-0.155172
-0.782532	t}s s}t	-0.155172
-0.482157	t}s|t o|c}aw	-0.155172
-1.047016	t}t </s>
-2.813226	t}t -|t}t	-0.155172
-1.965073	t}t -}q	-0.275975
-2.901537	t}t a|-}a	-0.155172
-2.901537	t}t a|-}ay	-0.155172
-2.181945	t}t a|w}aw	-0.213041
-1.615576	t}t a|y}ay	-0.609153
-2.268203	t}t a}_	-0.155172
-1.044525	t}t a}a	-0.536223
-2.813226	t}t a}ae	-0.155172
-1.861242	t}t a}a|q	-0.291041
-2.901537	t}t a}a|s	-0.155172
-2.410964	t}t a}e	-0.279824
-2.181945	t}t a}ey	-0.234181
-2.078065	t}t b}b	-0.373990
-2.316458	t}t d}d	-0.155172
-2.901537	t}t e|-}i	-0.155172
-1.757179	t}t e|r}er	-0.309137
-1.676948	t}t e}_	-0.317889
-1.186152	t}t e}e	-0.433629
-2.901537	t}t e}e|k	-0.155172
-2.866583	t}t e}e|y	-0.155172
-1.667871	t}t e}i	-0.309137
-2.866583	t}t e}y	-0.155172
-2.376398	t}t g}g	-0.155172
-2.014028	t}t h}_	-0.200833
-2.126906	t}t h}h	-0.155172
-2.372911	t}t i}ay	-0.155172
-2.584396	t}t i}e	-0.155172
-1.112331	t}t i}i	-0.446163
-1.998369	t}t i}i|q	-0.213041
-2.765713	t}t i}y	-0.155172
-1.686098	t}t l}l	-0.251362
-2.059969	t}t m}m	-0.234181
-1.930635	t}t n}n	-0.373990
-2.883187	t}t o|c}aw	-0.155172
-2.839086	t}t o|w}aw	-0.155172
-2.193842	t}t o|y}oy	-0.373990
-2.683911	t}t o}a	-0.155172
-1.115341	t}t o}o	-0.504041
-2.153554	t}t o}o|q	-0.373990
-1.303648	t}t o}u	-0.454520
-2.401134	t}t o}u|q	-0.155172
-2.866583	t}t r|e}e	-0.155172
-2.901537	t}t r|i}r	-0.155172
-2.116689	t}t r}er	-0.155172
-1.438995	t}t r}r	-0.379241
-1.465153	t}t s}s	-0.302314
-2.788820	t}t t|h}th	-0.155172
-2.866583	t}t u|t}u	-0.155172
-2.866583	t}t u|w}w	-0.155172
-1.684348	t}t u}o	-0.258771
-2.813226	t}t u}o|q	-0.155172
-1.235594	t}t u}u	-0.506366
-2.883187	t}t w|o}w	-0.155172
-2.247245	t}t w}w	-0.155172
-2.788820	t}t y}ay	-0.155172
-2.176116	t}t y}i	-0.373990
-1.944215	t}t y}y	-0.213041
-0.482157	t}t|i v}v|i	-0.155172
-0.482366	t}t|o o}s|a	-0.155172
-0.780096	u|d}a g|e}jh	-0.155172
-0.776711	u|d}a g}jh	-0.155172
-0.778739	u|i}u c|e}s	-0.155172
-0.744861	u|i}u t}t	-0.155172
-0.461251	u|i}y o}o	-0.155172
-0.771349	u|p}p u}o	-0.155172
-0.750539	u|p}p u}u	-0.155172
-0.918229	u|r}er </s>
-1.164167	u|r}er g}jh	-0.155172
-1.071184	u|r}er n}n	-0.155172
-1.097191	u|r}er s}s	-0.155172
-1.090194	u|r}er t}t	-0.155172
-0.738021	u|t}t i}i	-0.155172
-0.748006	u|t}t s}s	-0.155172
-0.948096	u|t}u c|h}ch	-0.155172
-0.508463	u|t}u d}d|t	-0.279824
-0.867231	u|w}w a}a	-0.155172
-0.909971	u|w}w e}e	-0.155172
-0.892896	u|w}w i}i	-0.155172
-0.328068	u|y}uy -}q	-0.155172
-0.998375	u}a b}b	-0.155172
-1.385508	u}a m}m	-0.155172
-0.780726	u}a n}n	-0.213041
-1.454767	u}a s|y}sh	-0.155172
-0.791273	u}a s}s	-0.234181
-0.482366	u}ng g}ay	-0.155172
-1.459803	u}o </s>
-1.720744	u}o a}a	-0.155172
-1.147333	u}o b}b	-0.179944
-1.553464	u}o d}d	-0.373990
-1.066536	u}o g}g	-0.309137
-2.199373	u}o i}q|i	-0.155172
-1.722148	u}o k}k	-0.155172
-1.051095	u}o l}l	-0.321858
-1.243445	u}o m}m	-0.272920
-1.396584	u}o n|g}ng	-0.200833
-2.240022	u}o n|y}ny	-0.155172
-1.488429	u}o n}n	-0.200833
-1.283929	u}o o}q|o	-0.595839
-1.569089	u}o p}p	-0.250943
-1.755745	u}o r}er	-0.155172
-1.143904	u}o r}r	-0.187290
-1.351633	u}o s}s	-0.155172
-2.261869	u}o t|s}ch	-0.155172
-1.344800	u}o t}t	-0.272920
-2.291705	u}o u}q|o	-0.155172
-2.038975	u}o y}y	-0.155172
-0.470815	u}ow b}b	-0.155172
-0.270755	u}o|q </s>
-1.146192	u}o|q o}u	-0.155172
-1.193495	u}q|o b}b	-0.155172
-1.183056	u}q|o d}d	-0.155172
-1.195259	u}q|o g}g	-0.155172
-1.158008	u}q|o l}l	-0.155172
-1.131263	u}q|o n}n	-0.155172
-1.195259	u}q|o p}p	-0.155172
-1.297006	u}q|u b}b	-0.192882
-1.812545	u}q|u d|y}jh	-0.155172
-1.609792	u}q|u d}d	-0.155172
-1.639437	u}q|u g}g	-0.155172
-1.293040	u}q|u k}k	-0.155172
-1.552357	u}q|u l}l	-0.155172
-1.618058	u}q|u m}m	-0.155172
-1.690542	u}q|u n|g}ng	-0.155172
-1.783662	u}q|u n|y}ny	-0.155172
-1.068882	u}q|u n}n	-0.196478
-1.639437	u}q|u p}p	-0.155172
-1.618058	u}q|u r}r	-0.155172
-1.260714	u}q|u s}s	-0.213041
-1.251647	u}q|u t}t	-0.155172
-1.574428	u}q|u u}u	-0.155172
-1.657333	u}q|u y}y	-0.155172
-1.411169	u}u </s>
-2.881616	u}u -|c}k	-0.155172
-2.726018	u}u -|l}l	-0.155172
-2.814323	u}u -|p}p	-0.155172
-2.288288	u}u -}q	-0.234181
-1.754397	u}u a}q|a	-0.235899
-1.310390	u}u b}b	-0.437976
-2.759218	u}u c|e}s	-0.155172
-2.556234	u}u c}k	-0.155172
-2.867904	u}u d|y}jh	-0.155172
-1.340736	u}u d}d	-0.379241
-2.567180	u}u e|r}er	-0.155172
-2.556234	u}u e}_	-0.155172
-1.311004	u}u g}g	-0.421021
-2.695177	u}u h}_	-0.155172
-1.430743	u}u h}h	-0.450515
-2.881616	u}u h}w	-0.155172
-2.214846	u}u i}i	-0.155172
-2.710324	u}u i}q|i	-0.155172
-1.465944	u}u k}k	-0.307349
-2.432189	u}u l|i}ly	-0.234181
-1.185379	u}u l}l	-0.472715
-1.145601	u}u m}m	-0.556844
-1.317818	u}u n|g}ng	-0.429765
-1.089901	u}u n}n	-0.527900
-2.224231	u}u n}ng	-0.155172
-2.881616	u}u n}n|d	-0.155172
-2.234416	u}u o}q|o	-0.187290
-1.771802	u}u o}q|u	-0.216618
-1.249494	u}u p}p	-0.403254
-1.950549	u}u r}er	-0.213041
-1.464191	u}u r}r	-0.439867
-2.795167	u}u s|h}sh	-0.155172
-2.710324	u}u s|y}sh	-0.155172
-2.881616	u}u s}m	-0.155172
-1.238954	u}u s}s	-0.458958
-2.834362	u}u t}ch	-0.155172
-1.160013	u}u t}t	-0.407956
-2.834362	u}u u}q|u	-0.155172
-2.326566	u}u u}u	-0.155172
-1.525881	u}u w}w	-0.460015
-1.646548	u}u y}y	-0.361957
-2.795167	u}u z}s	-0.155172
-2.424140	u}u z}z	-0.279824
-1.129195	u}uh b}b	-0.155172
-0.691567	u}uh n}n	-0.155172
-1.103456	u}uh s}s	-0.155172
-1.140506	u}uh w}w	-0.155172
-0.446914	u}u|q </s>
-0.955959	u}u|q o|y}uy	-0.155172
-0.542949	u}w a}a	-0.155172
-1.538510	u}w e|r}er	-0.155172
-0.696273	u}w e}e	-0.213041
-1.523551	u}w e}i	-0.155172
-1.592984	u}w i|t}i	-0.155172
-1.429204	u}w i}i	-0.155172
-1.342389	u}y|u k}k	-0.155172
-1.301288	u}y|u l}l	-0.155172
-1.267546	u}y|u n}n	-0.155172
-1.431684	u}y|u p}p|i	-0.155172
-1.365693	u}y|u r}er	-0.155172
-1.337875	u}y|u r}r	-0.155172
-0.742000	u}y|u t}t	-0.155172
-0.415768	v|e}b </s>
-0.446914	v|e}v </s>
-0.912379	v|e}v l}l	-0.155172
-0.867231	v}b a}a	-0.155172
-0.938379	v}b e|r}er	-0.155172
-0.892896	v}b i}i	-0.155172
-0.482366	v}f|e i|c}k	-0.155172
-0.465512	v}i|v e}e	-0.155172
-0.415768	v}o|er </s>
-1.998913	v}v a|o}aw	-0.155172
-0.754649	v}v a}a	-0.235899
-1.115600	v}v e|r}er	-0.200833
-0.854937	v}v e}e	-0.183143
-1.868770	v}v e}i	-0.155172
-1.947457	v}v i}ay	-0.155172
-1.527998	v}v i}e	-0.279824
-0.846736	v}v i}i	-0.196478
-2.002410	v}v i}iy	-0.155172
-1.549022	v}v i}y	-0.155172
-1.273735	v}v o}o	-0.155172
-0.482366	v}v|a d}r|d	-0.155172
-0.658732	v}v|i </s>
-0.780096	v}v|i c}s|i	-0.155172
-0.415768	w|o}aw </s>
-0.446914	w|o}o </s>
-0.939524	w|o}o n|g}ng	-0.155172
-0.327494	w|o}w r}er	-0.155172
-0.469483	w|u}u m}m	-0.155172
-0.415768	w}aw </s>
-1.515518	w}w </s>
-1.216877	w}w a|y}ay	-0.595839
-2.195889	w}w a|y}ey	-0.155172
-2.076677	w}w a}_	-0.155172
-0.568191	w}w a}a	-0.375792
-2.248889	w}w a}ao	-0.155172
-1.112163	w}w a}a|q	-0.484214
-1.805591	w}w a}o	-0.279824
-2.243370	w}w a}u	-0.155172
-1.743888	w}w e|r}er	-0.155172
-1.009611	w}w e}e	-0.224948
-2.238234	w}w e}ey	-0.155172
-2.220798	w}w i|g}ay	-0.155172
-0.932830	w}w i}i	-0.257985
-2.135704	w}w i}i|q	-0.155172
-2.220798	w}w o|o}u	-0.155172
-1.882216	w}w o}o	-0.155172
-2.024722	w}w o}u	-0.155172
-1.923287	w}w s}s	-0.155172
-1.940869	w}w u}u	-0.155172
-0.415768	x|t}s </s>
-0.465512	x}g|z e}e	-0.155172
-0.313754	x}h a}a	-0.279824
-0.491819	x}k|s </s>
-1.404844	x}k|s c|h}ch	-0.155172
-1.325165	x}k|s e}e	-0.155172
-1.373762	x}k|s e}i	-0.155172
-1.290211	x}k|s i}i	-0.155172
-1.359018	x}k|s p}p	-0.155172
-0.480254	x}k|sh u}w	-0.155172
-0.814577	y|a}a </s>
-1.342805	y|a}a k}k	-0.155172
-1.338308	y|a}a m}m	-0.155172
-0.963258	y|a}a n|g}ng	-0.279824
-1.268231	y|a}a n}n	-0.155172
-1.338308	y|a}a r}r	-0.155172
-1.358920	y|a}a y}y	-0.155172
-0.459298	y|n}n i}i	-0.155172
-0.783614	y|o}o </s>
-0.890260	y|o}o n}n	-0.155172
-0.907230	y|o}o s}s	-0.155172
-0.465842	y|o}y u}u	-0.155172
-0.468819	y|u}u d}d	-0.155172
-0.415768	y|y}oy </s>
-0.525218	y}ay </s>
-1.222402	y}ay e}_	-0.155172
-1.169919	y}ay l}l	-0.155172
-1.203146	y}ay p}p	-0.155172
-0.461251	y}a|sh o}o	-0.155172
-0.770018	y}a|y o}o|q	-0.155172
-0.778062	y}a|y o}u|q	-0.155172
-0.783614	y}e </s>
-0.921112	y}e r}r	-0.155172
-0.932547	y}e w}w	-0.155172
-0.461251	y}e|s o}o	-0.155172
-0.177487	y}i </s>
-1.745807	y}i e}_	-0.155172
-1.705852	y}i m}m	-0.155172
-1.635522	y}i n}n	-0.155172
-1.789814	y}i p|h}f	-0.155172
-1.673413	y}i s}s	-0.155172
-1.763391	y}i v}v	-0.155172
-0.719897	y}i|y a}a	-0.155172
-0.741739	y}i|y o}o	-0.155172
-1.647192	y}y </s>
-2.453934	y}y -|s}s	-0.155172
-2.271365	y}y -}q	-0.155172
-1.806800	y}y a|w}aw	-0.373990
-1.976367	y}y a|y}ay	-0.155172
-0.673479	y}y a}a	-0.501547
-1.459092	y}y a}a|q	-0.595839
-1.025113	y}y e}e	-0.235105
-1.777150	y}y e}i	-0.155172
-2.263976	y}y h}h	-0.155172
-2.018666	y}y i}i	-0.155172
-2.183910	y}y k}k	-0.155172
-2.006347	y}y n}n	-0.155172
-2.362217	y}y o|y}oy	-0.155172
-2.453934	y}y o|y}uy	-0.155172
-0.941408	y}y o}o	-0.463401
-0.957024	y}y o}o|q	-1.010812
-1.131590	y}y o}u	-0.322031
-1.825078	y}y o}u|q	-0.373990
-2.477242	y}y r|o}r	-0.155172
-2.171891	y}y r}r	-0.155172
-2.091009	y}y s}s	-0.155172
-1.980162	y}y u}o	-0.279824
-1.247537	y}y u}u	-0.320322
-0.535682	z}s </s>
-0.770121	z}s a}a	-0.155172
-1.404631	z}s o}u	-0.155172
-1.402500	z}s p}p	-0.155172
-1.464067	z}s u}w	-0.155172
-0.634060	z}z </s>
-0.679938	z}z a}a	-0.200833
-1.262405	z}z o}o	-0.155172
-1.315530	z}z p}p	-0.155172
-0.415768	z}z|i </s>

\3-grams:
-0.244883	<s> -} </s>
-0.910290	<s> -}q </s>
-0.666113	<s> -}q i}i	-0.124275
-0.986539	<s> -}q v}i|v	-0.124275
-0.343011	<s> 1|0}# </s>
-0.182962	<s> 1|1}# </s>
-0.274428	<s> 1|8}# 0|0}_	-0.124275
-0.517537	<s> 1|9}# </s>
-0.575885	<s> 1|9}# 9|0}_	-0.124275
-0.689755	<s> 1}# </s>
-1.002720	<s> 1}# 0|0}_	-0.124275
-1.005375	<s> 1}# 2|0}_	-0.124275
-1.005375	<s> 1}# 4|4}_	-0.124275
-1.005829	<s> 1}# 8|8}_	-0.124275
-0.244883	<s> 2|0}# </s>
-0.643434	<s> 2|0}_ 1|1}#	-0.124275
-0.643434	<s> 2|0}_ 1|2}#	-0.124275
-0.182962	<s> 2|2}# </s>
-0.244883	<s> 2|5}# </s>
-0.244883	<s> 2|6}# </s>
-0.244883	<s> 2|7}# </s>
-0.244883	<s> 2|8}# </s>
-0.517537	<s> 2}# </s>
-0.575885	<s> 2}# 9|7}_	-0.124275
-0.244883	<s> 3|2}# </s>
-0.244883	<s> 3|3}# </s>
-0.244883	<s> 3|5}# </s>
-0.244883	<s> 3|6}# </s>
-0.244883	<s> 3|7}# </s>
-0.244883	<s> 3|9}# </s>
-0.575885	<s> 3}# -|4}_	-0.124275
-0.574644	<s> 3}# 0|0}_	-0.124275
-0.273539	<s> 4|-}# h}_	-0.124275
-0.244883	<s> 4|1}# </s>
-0.244883	<s> 4|3}# </s>
-0.244883	<s> 4|4}# </s>
-0.381054	<s> 4|4}_ 5}#	-0.124275
-0.244883	<s> 4|5}# </s>
-0.244883	<s> 4|7}# </s>
-0.244883	<s> 4|8}# </s>
-0.244883	<s> 4|9}# </s>
-0.244883	<s> 5|1}# </s>
-0.244883	<s> 5|3}# </s>
-0.244883	<s> 5|4}# </s>
-0.244883	<s> 5|5}# </s>
-0.244883	<s> 5|8}# </s>
-0.182962	<s> 5}# </s>
-0.244883	<s> 6|1}# </s>
-0.244883	<s> 6|3}# </s>
-0.244883	<s> 6|4}# </s>
-0.244883	<s> 6|5}# </s>
-0.244883	<s> 6|7}# </s>
-0.244883	<s> 6|9}# </s>
-0.244883	<s> 6}# </s>
-0.182962	<s> 7|0}# </s>
-0.244883	<s> 7|1}# </s>
-0.244883	<s> 7|4}# </s>
-0.244883	<s> 7|5}# </s>
-0.244883	<s> 7}# </s>
-0.244883	<s> 8|3}# </s>
-0.244883	<s> 8|4}# </s>
-0.244883	<s> 8|5}# </s>
-0.244883	<s> 8|9}# </s>
-0.244883	<s> 8}# </s>
-0.244883	<s> 9|1}# </s>
-0.244883	<s> 9|6}# </s>
-0.244883	<s> 9|8}# </s>
-0.244883	<s> 9|9}# </s>
-0.517537	<s> 9}# </s>
-0.574644	<s> 9}# 0|0}_	-0.124275
-0.192110	<s> a|y}ay </s>
-0.754083	<s> a}_ i}e	-0.124275
-0.732630	<s> a}_ n}n	-0.124275
-1.786679	<s> a}a a}q|a	-0.124275
-1.680472	<s> a}a g}g	-0.124275
-1.484567	<s> a}a h}h	-0.124275
-1.735244	<s> a}a k}k	-0.124275
-2.099922	<s> a}a l|i}ly	-0.124275
-0.375637	<s> a}a l}l	-0.467458
-1.436323	<s> a}a m}m	-0.124275
-1.428404	<s> a}a n|g}ng	-0.124275
-1.973313	<s> a}a n|y}ny	-0.124275
-1.045099	<s> a}a n}n	-0.402932
-1.263349	<s> a}a p}p	-0.277993
-1.477338	<s> a}a r}er	-0.124275
-1.632163	<s> a}a s}s	-0.124275
-1.712792	<s> a}a t}t	-0.124275
-0.769150	<s> a}e n|d}n	-0.124275
-0.663833	<s> a}e n}n	-0.124275
-0.509164	<s> a}ey b}b|i	-0.124275
-0.274280	<s> a}ng|a n|g}_	-0.124275
-0.437719	<s> a}q i}e	-0.248552
-0.851473	<s> a}q l}o	-0.124275
-1.002683	<s> a}q w}aw	-0.124275
-0.860510	<s> a}q y}ay	-0.124275
-2.524887	<s> a}q|a -}q	-0.124275
-2.005539	<s> a}q|a a}a	-0.124275
-2.403160	<s> a}q|a a}q|a	-0.124275
-1.083731	<s> a}q|a b}b	-0.263466
-1.986880	<s> a}q|a c}k	-0.203059
-1.312018	<s> a}q|a d}d	-0.258446
-2.636705	<s> a}q|a d}n|d	-0.124275
-2.569639	<s> a}q|a f}f	-0.124275
-2.624859	<s> a}q|a g|u}g	-0.124275
-1.246705	<s> a}q|a g}g	-0.307644
-2.363280	<s> a}q|a h}h	-0.124275
-1.263148	<s> a}q|a k}k	-0.230534
-2.235979	<s> a}q|a l|l}l	-0.124275
-1.080509	<s> a}q|a l}l	-0.224121
-1.042402	<s> a}q|a m}m	-0.288874
-2.619538	<s> a}q|a n|d}n	-0.124275
-2.609089	<s> a}q|a n|g}_	-0.124275
-1.820917	<s> a}q|a n|g}ng	-0.124275
-2.598886	<s> a}q|a n|i}ny	-0.124275
-0.720593	<s> a}q|a n}n	-0.355789
-2.624859	<s> a}q|a p}_	-0.124275
-1.542175	<s> a}q|a p}p	-0.277993
-2.614282	<s> a}q|a q|u}k	-0.124275
-1.682727	<s> a}q|a r}er	-0.169812
-1.162275	<s> a}q|a r}r	-0.156307
-2.614282	<s> a}q|a s|h}sh	-0.124275
-2.619538	<s> a}q|a s|s}s	-0.124275
-1.416433	<s> a}q|a s}s	-0.175756
-1.150800	<s> a}q|a t}t	-0.169756
-1.885134	<s> a}q|a w}w	-0.277993
-1.630327	<s> a}q|a y}y	-0.169812
-0.264452	<s> a}q|ae n}n	-0.124275
-0.706064	<s> a}q|e n|d}n	-0.124275
-0.372924	<s> a}q|e n}n	-0.124275
-1.060541	<s> a}q|ey g}jh	-0.124275
-1.011081	<s> a}q|ey n}n	-0.124275
-0.700625	<s> a}q|ey p}p	-0.124275
-1.064719	<s> a}q|ey s|i}sh	-0.124275
-1.021596	<s> a}q|ey t}t	-0.124275
-0.274577	<s> a}q|uh n|d}n	-0.124275
-2.899458	<s> b}b a|t}a	-0.124275
-2.892221	<s> b}b a|u}aw	-0.124275
-2.703207	<s> b}b a|w}aw	-0.124275
-1.688282	<s> b}b a|y}ay	-0.161883
-2.187858	<s> b}b a|y}ey	-0.124275
-0.370756	<s> b}b a}a	-0.673242
-2.314198	<s> b}b a}a|q	-0.124275
-2.854461	<s> b}b a}ey	-0.124275
-2.899458	<s> b}b a}i	-0.124275
-2.690626	<s> b}b e|r}er	-0.124275
-1.506640	<s> b}b e}e	-0.292454
-2.110076	<s> b}b e}i	-0.124275
-2.172217	<s> b}b i|y}y	-0.203059
-0.824408	<s> b}b i}i	-0.433071
-1.670532	<s> b}b l}l	-0.194368
-1.681985	<s> b}b o}o	-0.124275
-1.744334	<s> b}b o}u	-0.169812
-1.756644	<s> b}b r}er	-0.248552
-2.122914	<s> b}b r}r	-0.248552
-2.897426	<s> b}b u|d}a	-0.124275
-2.895521	<s> b}b u|t}u	-0.124275
-2.879266	<s> b}b u}a	-0.124275
-2.763178	<s> b}b u}o	-0.124275
-0.665338	<s> b}b u}u	-0.480886
-2.581327	<s> b}b y}y	-0.124275
-0.286104	<s> b}b|i p}p|i	-0.124275
-0.381170	<s> b}b|u l}l|e	-0.124275
-0.758501	<s> c|h}ch a}a	-0.124275
-0.953550	<s> c|h}ch e}e	-0.124275
-0.692104	<s> c|h}ch i}ay	-0.277993
-1.297068	<s> c|h}ch i}i	-0.124275
-1.363816	<s> c|h}ch o|w}aw	-0.124275
-1.361668	<s> c|h}ch o}ao	-0.124275
-1.172762	<s> c|h}ch o}o	-0.124275
-0.198585	<s> c|h}sh e}e	-0.124275
-0.481867	<s> c|i}sh u}u	-0.124275
-2.292166	<s> c}k a}_	-0.124275
-0.437604	<s> c}k a}a	-0.317858
-2.216752	<s> c}k a}ae	-0.124275
-2.324787	<s> c}k a}e	-0.124275
-2.116395	<s> c}k a}ey	-0.124275
-1.180506	<s> c}k h}_	-0.238912
-1.596520	<s> c}k l}l	-0.124275
-2.207527	<s> c}k o}a	-0.124275
-0.587760	<s> c}k o}o	-0.284669
-2.210581	<s> c}k o}uh	-0.124275
-1.131227	<s> c}k r}er	-0.261315
-1.002182	<s> c}k r}r	-0.258446
-0.267926	<s> c}s e}e	-0.209854
-1.302651	<s> c}s e}i	-0.124275
-0.569902	<s> c}s i}i	-0.203059
-0.633860	<s> c}s|i c}s|i	-0.124275
-0.746461	<s> c}s|i i}q|ay	-0.124275
-0.781254	<s> d|i}jh o}o	-0.124275
-0.954734	<s> d|i}jh u}u	-0.124275
-0.573883	<s> d|i}jh y|a}a	-0.124275
-2.707355	<s> d}d a|w}aw	-0.124275
-2.745913	<s> d}d a|w}o	-0.124275
-2.728682	<s> d}d a|y}ey	-0.124275
-0.461103	<s> d}d a}a	-0.436604
-2.131197	<s> d}d a}a|q	-0.124275
-2.707355	<s> d}d a}ey	-0.124275
-1.202273	<s> d}d e}e	-0.238912
-1.644118	<s> d}d e}i	-0.124275
-2.744185	<s> d}d e}u	-0.124275
-2.274464	<s> d}d i}ay	-0.124275
-2.006746	<s> d}d i}e	-0.203059
-2.744185	<s> d}d i}ey	-0.124275
-0.649682	<s> d}d i}i	-0.311604
-2.630933	<s> d}d i}i|q	-0.124275
-1.229585	<s> d}d o}o	-0.225462
-1.654932	<s> d}d o}u	-0.169812
-2.312707	<s> d}d r}r	-0.124275
-1.820880	<s> d}d u}o	-0.124275
-0.798928	<s> d}d u}u	-0.375465
-2.677209	<s> d}d w}w	-0.124275
-0.943799	<s> d}d|i a}q|ey	-0.124275
-0.943402	<s> d}d|i b}b|i	-0.124275
-0.937897	<s> d}d|i i}q|i	-0.124275
-0.943402	<s> d}d|i o}q|ow	-0.124275
-0.264887	<s> d}g i}i	-0.124275
-0.514100	<s> e}_ i}q	-0.124275
-1.343972	<s> e}e d}d	-0.124275
-1.510001	<s> e}e d}jh	-0.124275
-0.656045	<s> e}e l}l	-0.124275
-0.622359	<s> e}e n}n	-0.124275
-1.234540	<s> e}e t}t	-0.124275
-1.469178	<s> e}e x}k|s	-0.124275
-1.284427	<s> e}i d}d	-0.124275
-1.050972	<s> e}i n}n	-0.124275
-1.171996	<s> e}i p}p	-0.124275
-0.525630	<s> e}i s}s	-0.203059
-1.159405	<s> e}i t}t	-0.124275
-0.741576	<s> e}q a}_	-0.124275
-0.749037	<s> e}q a}e	-0.124275
-0.749923	<s> e}q y}ay	-0.124275
-1.641305	<s> e}q|e b}b	-0.124275
-0.982635	<s> e}q|e k}k	-0.234171
-1.139441	<s> e}q|e l}l	-0.124275
-1.348066	<s> e}q|e m}m	-0.248552
-1.362914	<s> e}q|e n|g}ng	-0.248552
-1.129952	<s> e}q|e n}n	-0.124275
-1.397396	<s> e}q|e p}p	-0.124275
-0.621575	<s> e}q|e s}s	-0.241302
-1.678715	<s> e}q|e v}v	-0.124275
-1.707343	<s> e}q|e x}g|z	-0.124275
-0.995406	<s> e}q|e x}k|s	-0.181983
-1.013924	<s> e}q|i </s>
-1.214794	<s> e}q|i d}d|i	-0.124275
-1.153363	<s> e}q|i l}l	-0.124275
-0.855423	<s> e}q|i m}m	-0.248552
-1.135694	<s> e}q|i n}n	-0.124275
-1.177351	<s> e}q|i p}p	-0.124275
-1.211143	<s> e}q|i q|u}k	-0.124275
-1.155490	<s> e}q|i s}s	-0.124275
-0.268058	<s> e}y u}u	-0.248552
-0.186115	<s> f|i}f r}er	-0.124275
-1.487589	<s> f}f e|r}er	-0.124275
-1.450142	<s> f}f e}e	-0.124275
-1.625711	<s> f}f e}i	-0.124275
-1.655369	<s> f}f i}ay	-0.124275
-0.721098	<s> f}f i}i	-0.248552
-0.992034	<s> f}f l}l	-0.124275
-1.670993	<s> f}f o|u}aw	-0.124275
-0.950460	<s> f}f o}o	-0.277993
-0.875387	<s> f}f r}er	-0.203059
-1.464736	<s> f}f r}r	-0.124275
-0.447807	<s> f}p l}l	-0.124275
-0.866444	<s> f}p r}er	-0.124275
-0.276765	<s> g|i}i n}n	-0.124275
-0.271618	<s> g|m}_ a}_	-0.124275
-0.956960	<s> g|u}g e}i	-0.124275
-0.274103	<s> g|u}g i}i	-0.203059
-0.616572	<s> g}g a}a	-0.454854
-2.738104	<s> g}g e}e	-0.124275
-2.775631	<s> g}g e}i	-0.124275
-0.238753	<s> g}g i}i	-0.852342
-2.057180	<s> g}g l}l	-0.124275
-1.508473	<s> g}g o}o	-0.319307
-2.435118	<s> g}g o}u	-0.124275
-2.875341	<s> g}g r|o}er	-0.124275
-2.733492	<s> g}g r}er	-0.124275
-1.479529	<s> g}g r}r	-0.292780
-1.225520	<s> g}g u}u	-0.473401
-2.292949	<s> g}g w}w	-0.124275
-2.345130	<s> g}g y}y	-0.124275
-0.267654	<s> g}h e}e	-0.124275
-0.246658	<s> g}jh e}e	-0.124275
-1.047082	<s> g}jh e}i	-0.124275
-0.951190	<s> g}jh y}i	-0.124275
-0.380946	<s> g}jh|i o}q|ow	-0.124275
-2.570252	<s> h}h a|y}ey	-0.124275
-0.401390	<s> h}h a}a	-0.436332
-1.400538	<s> h}h e}e	-0.238912
-2.124761	<s> h}h i|g}ay	-0.248552
-2.554043	<s> h}h i}e	-0.124275
-0.519230	<s> h}h i}i	-0.582533
-2.480603	<s> h}h o|u}aw	-0.124275
-1.531729	<s> h}h o}o	-0.124275
-2.085017	<s> h}h o}ow	-0.124275
-2.126079	<s> h}h u|w}w	-0.248552
-2.570252	<s> h}h u}a	-0.124275
-2.079647	<s> h}h u}o	-0.124275
-0.853645	<s> h}h u}u	-0.247032
-2.529974	<s> h}h y}y	-0.124275
-0.265759	<s> h}p o}o	-0.124275
-0.264887	<s> i|k}k i}i	-0.124275
-0.103809	<s> i|s}q l}ay|l	-0.402932
-0.275050	<s> i}f v}o|er	-0.124275
-0.264452	<s> i}h|i n}n	-0.124275
-2.294150	<s> i}i -|k}k	-0.124275
-1.912220	<s> i}i d}d	-0.124275
-1.427590	<s> i}i g}g	-0.124275
-1.884414	<s> i}i h}h	-0.124275
-0.702977	<s> i}i k}k	-0.914815
-1.539602	<s> i}i l}l	-0.124275
-0.933756	<s> i}i m}m	-0.175756
-1.564650	<s> i}i n|g}ng	-0.124275
-1.202600	<s> i}i n}n	-0.181983
-1.160637	<s> i}i p}p	-0.331081
-1.399715	<s> i}i s}s	-0.203059
-0.548324	<s> i}i t}t	-0.325809
-1.918708	<s> i}i y}y	-0.124275
-0.408377	<s> i}q n}n	-0.124275
-0.373984	<s> i}q|ay r}r	-0.124275
-0.482491	<s> i}q|e m}m	-0.124275
-0.476419	<s> i}q|e n}n	-0.124275
-1.283179	<s> i}q|i b}b	-0.331081
-2.526063	<s> i}q|i c}k	-0.124275
-1.700594	<s> i}q|i d}d	-0.234171
-1.766539	<s> i}q|i g}g	-0.124275
-1.901111	<s> i}q|i h}h	-0.124275
-2.195928	<s> i}q|i i}q|i	-0.124275
-0.645319	<s> i}q|i k}k	-0.916687
-1.103037	<s> i}q|i l}l	-0.335500
-1.373103	<s> i}q|i m}m	-0.241302
-2.388846	<s> i}q|i n|-}n	-0.124275
-1.709115	<s> i}q|i n|g}ng	-0.181983
-1.971581	<s> i}q|i n|y}ny	-0.203059
-0.627394	<s> i}q|i n}n	-0.457598
-2.582951	<s> i}q|i n}ng	-0.124275
-1.332935	<s> i}q|i p}p	-0.370459
-0.896379	<s> i}q|i s}s	-0.381729
-2.595921	<s> i}q|i s}s|a	-0.124275
-1.876529	<s> i}q|i t}t	-0.124275
-1.454241	<s> i}q|i y}y	-0.305859
-0.275050	<s> i}t i}u	-0.124275
-0.423544	<s> j}h o}o	-0.124275
-0.629173	<s> j}h u}u	-0.124275
-0.274132	<s> j}h|u u}w	-0.124275
-1.282167	<s> j}jh a|y}ey	-0.124275
-1.006662	<s> j}jh a}a	-0.124275
-1.274900	<s> j}jh a}ey	-0.124275
-0.654625	<s> j}jh e}e	-0.161883
-1.306810	<s> j}jh i}i	-0.124275
-1.608356	<s> j}jh o|y}oy	-0.124275
-1.614219	<s> j}jh o}a	-0.124275
-1.624170	<s> j}jh o}ao	-0.124275
-1.519171	<s> j}jh o}o	-0.124275
-1.631425	<s> j}jh u|d}a	-0.124275
-1.631425	<s> j}jh u|i}u	-0.124275
-0.871491	<s> j}jh u}u	-0.248552
-0.380377	<s> j}jh|ey c}s|i	-0.124275
-0.244883	<s> k|a} </s>
-0.706551	<s> k}_ 1|2}#	-0.124275
-0.546690	<s> k}_ a}_	-0.124275
-3.028033	<s> k}k a|u}aw	-0.124275
-2.457653	<s> k}k a|y}ay	-0.124275
-2.566351	<s> k}k a|y}ey	-0.124275
-2.290366	<s> k}k a}_	-0.124275
-0.177938	<s> k}k a}a	-0.889233
-3.032801	<s> k}k a}a|g	-0.124275
-1.466769	<s> k}k a}a|q	-0.530160
-2.993304	<s> k}k a}ey	-0.124275
-3.031056	<s> k}k e}ey	-0.124275
-1.118139	<s> k}k i}i	-0.656770
-2.487757	<s> k}k l}l	-0.124275
-3.034660	<s> k}k o|r}o	-0.124275
-1.455003	<s> k}k o}o	-0.212584
-1.908245	<s> k}k o}u	-0.124275
-3.013224	<s> k}k o}uh	-0.124275
-1.954094	<s> k}k r}r	-0.265976
-3.016145	<s> k}k u}a	-0.124275
-1.799507	<s> k}k u}o	-0.156307
-1.017634	<s> k}k u}u	-0.429571
-2.937357	<s> k}k u}w	-0.124275
-2.201740	<s> k}k w}w	-0.203059
-0.801258	<s> k}k|a a}b|a	-0.124275
-0.796011	<s> k}k|a a}q|a	-0.124275
-0.785293	<s> k}k|a g}g	-0.124275
-0.274959	<s> k}q|a o}k|o	-0.124275
-0.265759	<s> l|e}ly o}o	-0.124275
-0.494455	<s> l|l}l o|y}oy	-0.124275
